\data\
ngram 1=42
ngram 2=1280
ngram 3=16435

\1-grams:
-99.999 <spn> -99.999
-99.999 <sil> -99.999
-99.999 <pad> -99.999
-2.9418426	<unk>	0
0	<s>	-2.931381
-1.5891777	</s>	0
-1.551349	T	-1.3054914
-1.551349	AH	-1.2630461
-1.551349	D	-1.2620108
-1.5891777	EY	-1.0177498
-1.5278447	IH	-1.216987
-1.6453602	Z	-1.1977355
-1.5891777	JH	-0.93333584
-1.7276613	UW	-0.8945029
-1.551349	N	-1.1853791
-1.5635961	B	-1.0960345
-1.5891777	ER	-1.2024605
-1.6163611	TH	-0.9151099
-1.5761986	W	-1.2700729
-1.5761986	EH	-1.1032922
-1.5761986	IY	-1.2014788
-1.6306187	AW	-0.6708298
-1.5635961	DH	-1.0086477
-1.5635961	P	-1.103845
-1.5635961	AE	-1.186373
-1.551349	S	-1.2731467
-1.5891777	AY	-1.1526854
-1.551349	L	-1.1656868
-1.551349	K	-1.2148124
-1.5394379	M	-1.1523789
-1.6025568	AO	-0.8495973
-1.5635961	F	-1.1032865
-1.551349	R	-1.0519865
-1.5891777	V	-0.95340234
-1.551349	G	-0.9993755
-1.5891777	OW	-1.0301245
-2.2061107	NG	-0.48809913
-1.5761986	AA	-0.97000015
-1.5761986	Y	-1.1733694
-1.5635961	HH	-1.2880294
-1.5891777	SH	-0.9307646
-1.8776968	UH	-0.6227414
-1.7461735	OY	-0.5637721
-1.5761986	CH	-0.95328164
-2.1547365	ZH	-0.50429434

\2-grams:
-4.3308125	<s> </s>	0
-1.5951381	T </s>	0
-1.4261283	AH </s>	0
-1.5335987	D </s>	0
-1.4167618	EY </s>	0
-1.4326607	Z </s>	0
-1.6575909	JH </s>	0
-1.2993662	UW </s>	0
-1.6416116	N </s>	0
-1.8393953	B </s>	0
-1.3502656	ER </s>	0
-1.2446753	TH </s>	0
-1.4520116	IY </s>	0
-1.41566	AW </s>	0
-2.1501048	DH </s>	0
-1.599186	P </s>	0
-1.5223551	S </s>	0
-1.470608	AY </s>	0
-1.6892769	L </s>	0
-1.6165931	K </s>	0
-1.6708823	M </s>	0
-1.8685334	AO </s>	0
-1.6255525	F </s>	0
-1.7830701	R </s>	0
-1.5274246	V </s>	0
-1.6859117	G </s>	0
-1.3189751	OW </s>	0
-1.3641655	NG </s>	0
-1.5184705	AA </s>	0
-1.7154855	SH </s>	0
-1.2093579	OY </s>	0
-1.463757	CH </s>	0
-1.27841	ZH </s>	0
-0.893262	<s> T	-2.3123507
-1.5739166	T T	-1.9088185
-1.3244323	AH T	-1.8761818
-1.5509403	D T	-1.7336881
-1.1710558	EY T	-1.4099121
-1.1142439	IH T	-1.8419139
-1.5100076	Z T	-1.6047666
-1.8013406	JH T	-1.019323
-1.3547587	UW T	-1.4703078
-1.6387111	N T	-1.9964155
-2.2072053	B T	-0.29822513
-1.4455566	ER T	-1.1254656
-1.7006085	TH T	-0.4630084
-1.2816807	EH T	-1.5075119
-1.3806137	IY T	-1.4752246
-0.7593608	AW T	-1.2987262
-2.268389	DH T	-1.1113558
-1.6685345	P T	-1.0685436
-1.0692289	AE T	-1.7485707
-1.3382957	S T	-2.0739048
-1.4249722	AY T	-1.4293106
-1.7579103	L T	-1.208244
-1.6402466	K T	-1.4787093
-1.702097	M T	-1.4972676
-1.211226	AO T	-1.1602087
-1.7014899	F T	-1.2113361
-1.8350294	R T	-1.3713782
-1.6616158	V T	-1.2458197
-2.112279	G T	-0.34103054
-1.3839023	OW T	-1.2872939
-1.4560854	NG T	-1.6600252
-1.2103269	AA T	-1.5821754
-1.790612	SH T	-0.73490167
-1.5068272	UH T	-0.87726724
-1.3988229	OY T	-0.31540108
-1.586024	CH T	-0.7104711
-1.8843316	<s> AH	-1.1562717
-1.4175457	T AH	-2.0928142
-1.6009873	AH AH	-0.94371533
-1.3886833	D AH	-1.8130287
-1.5770775	EY AH	-0.74294674
-1.3961883	Z AH	-1.7908428
-1.0604932	JH AH	-1.6702533
-1.3547587	UW AH	-1.1426072
-1.3686187	N AH	-1.7602121
-1.2134328	B AH	-1.7602121
-1.4108679	ER AH	-1.2849236
-1.2175083	TH AH	-1.0216707
-1.0405993	W AH	-2.3059185
-1.5108539	IY AH	-1.5797538
-1.595382	AW AH	-0.78331536
-0.8444439	DH AH	-2.1710393
-1.2628846	P AH	-1.8456161
-1.3382957	S AH	-1.8388097
-1.4461894	AY AH	-1.1418432
-1.2830998	L AH	-1.8034412
-1.3013672	K AH	-1.926215
-1.2514963	M AH	-1.879405
-1.858029	AO AH	-0.40012753
-1.2860326	F AH	-1.5721263
-1.178659	R AH	-1.8946862
-1.3348612	V AH	-1.4160571
-1.2202933	G AH	-1.244046
-1.5251117	OW AH	-1.0094277
-1.3565805	NG AH	-1.2128092
-1.9235907	AA AH	-0.35360837
-0.9473426	Y AH	-1.2951703
-1.1878746	HH AH	-1.5111959
-1.1578366	SH AH	-1.5803531
-1.2911143	OY AH	-0.3873718
-1.4604721	CH AH	-1.3226454
-0.41633263	ZH AH	-1.3213918
-1.4886873	<s> D	-1.7388623
-1.6132947	T D	-1.3800963
-1.4088371	AH D	-1.6204226
-1.7165703	D D	-0.91670793
-1.4142182	EY D	-1.1745049
-1.3352687	IH D	-1.5284624
-1.5322558	Z D	-1.2556691
-1.6522295	JH D	-0.6949174
-1.3869301	UW D	-1.3480216
-1.6108134	N D	-1.9987806
-1.9014168	B D	-0.41377056
-1.4108679	ER D	-1.3293142
-1.573418	TH D	-0.9439573
-1.2562346	EH D	-1.3819473
-1.469494	IY D	-1.4131492
-1.595382	AW D	-0.88927674
-2.136231	DH D	-0.34963277
-2.1075344	P D	-0.29876888
-1.2012205	AE D	-1.0956178
-1.7359946	S D	-0.94738215
-1.2998941	AY D	-1.3723035
-1.6539162	L D	-1.5061765
-1.7299699	K D	-0.6868614
-1.6675363	M D	-1.0560821
-1.858029	AO D	-0.5890172
-2.1006117	F D	-0.3050142
-1.8350294	R D	-1.2113193
-1.61059	V D	-0.932804
-1.8870202	G D	-0.42277595
-1.5251117	OW D	-0.69331664
-1.5853839	NG D	-0.7042977
-1.2815288	AA D	-1.1408571
-2.1782057	SH D	-0.57427084
-0.82429	UH D	-1.2188655
-1.2911143	OY D	-0.5336296
-1.7633443	CH D	-0.61085474
-3.2681057	<s> EY	-0.4003445
-1.4602942	T EY	-1.4539428
-2.654794	AH EY	-0.59747374
-1.4638951	D EY	-1.4353491
-2.4123397	EY EY	-0.59439313
-1.9123874	Z EY	-0.74391913
-1.3828236	JH EY	-0.69605654
-1.8099039	UW EY	-1.0534058
-1.3259286	N EY	-1.4635401
-1.3771782	B EY	-1.0918008
-1.8287185	ER EY	-0.9232596
-1.8907572	TH EY	-0.31540108
-1.1291118	W EY	-1.2869769
-1.7009495	IY EY	-1.1591067
-2.0262382	AW EY	-0.31540108
-0.9727357	DH EY	-1.2183579
-1.3694719	P EY	-1.0585035
-1.5223551	S EY	-1.0789144
-1.9089792	AY EY	-0.9886385
-1.3405759	L EY	-1.435531
-1.399607	K EY	-1.2891755
-1.369391	M EY	-1.3862278
-1.4020872	F EY	-1.3401964
-1.2538707	R EY	-1.5618623
-1.666846	V EY	-0.64824
-1.2033894	G EY	-1.2900094
-2.0464685	OW EY	-0.4407586
-1.8666364	NG EY	-0.29714015
-2.3038669	Y EY	-0.29714015
-1.361662	HH EY	-0.51400435
-1.3707224	SH EY	-0.8881354
-1.868139	OY EY	-0.31540108
-1.2185177	CH EY	-1.5510147
-1.0718665	<s> IH	-2.188053
-1.4437025	T IH	-2.078259
-1.4932165	AH IH	-1.4544282
-1.3368388	D IH	-2.0442083
-1.5023856	EY IH	-1.3863021
-1.3951179	Z IH	-1.8282192
-1.1487513	JH IH	-1.2349972
-1.2688586	UW IH	-1.3844435
-1.3675852	N IH	-1.954619
-1.1697849	B IH	-1.8551586
-1.3625522	ER IH	-1.5025836
-1.039524	TH IH	-2.1409965
-1.0095463	W IH	-1.9742256
-2.3801224	EH IH	-0.31540108
-1.5094726	IY IH	-1.9069536
-1.4063338	AW IH	-0.81178695
-0.8724587	DH IH	-2.411517
-1.3663558	P IH	-1.38012
-2.449661	AE IH	-0.31540108
-1.3500693	S IH	-1.951237
-1.5415812	AY IH	-1.3572148
-1.2567742	L IH	-1.8990933
-1.3970184	K IH	-1.8153917
-1.3194193	M IH	-1.9084996
-2.022578	AO IH	-0.29644376
-1.1949604	F IH	-1.5693303
-1.1777515	R IH	-1.9128517
-1.1664324	V IH	-1.7646153
-1.1659243	G IH	-1.6631162
-1.4611865	OW IH	-1.8176143
-1.4498271	NG IH	-1.5150659
-1.6105957	AA IH	-0.77356505
-1.0426372	Y IH	-1.9422389
-1.0492517	HH IH	-2.0710392
-1.2003481	SH IH	-1.259059
-1.5359663	OY IH	-0.71933186
-1.1952099	CH IH	-1.5199785
-1.2684406	ZH IH	-0.89542305
-3.965437	<s> Z	-0.30617464
-2.6424704	T Z	-0.31540108
-1.5598344	AH Z	-1.3707747
-1.6950697	D Z	-1.2036681
-1.5857738	EY Z	-1.022707
-1.0901498	IH Z	-2.1754935
-2.3644168	Z Z	-0.30314222
-1.3028275	UW Z	-1.1922598
-1.6455094	N Z	-1.2786083
-2.0001867	B Z	-0.78678304
-1.3823249	ER Z	-1.2883347
-2.326325	TH Z	-0.31540108
-1.7658217	EH Z	-0.93156916
-1.4357874	IY Z	-1.3688259
-1.6158183	AW Z	-1.4340024
-2.313884	DH Z	-0.73932695
-1.1490934	AE Z	-1.4007295
-1.4508832	AY Z	-0.9955554
-1.6612883	L Z	-1.1146535
-2.5517914	K Z	-0.29876867
-1.6753842	M Z	-1.2005022
-1.7355497	AO Z	-0.53000164
-1.9183111	R Z	-1.1049491
-1.6739192	V Z	-0.8928609
-1.8225155	G Z	-1.0050708
-1.3892993	OW Z	-1.1230261
-1.6161629	NG Z	-0.76764846
-1.4415028	AA Z	-1.5599451
-1.2154007	OY Z	-0.5632585
-2.1237342	<s> JH	-1.1973331
-1.7336452	T JH	-0.7733332
-1.515519	AH JH	-1.3183124
-1.7817348	D JH	-0.7372582
-1.297986	EY JH	-0.7017719
-1.4650246	IH JH	-1.0038785
-1.7349914	Z JH	-0.89656615
-2.0431437	JH JH	-0.31540108
-1.7294104	UW JH	-0.83198977
-1.818103	N JH	-1.216796
-2.378599	B JH	-0.9427074
-1.7871441	ER JH	-0.587989
-2.2926803	TH JH	-0.31540108
-1.403678	EH JH	-1.219003
-1.5588831	IY JH	-0.95070094
-2.2873065	DH JH	-0.30800435
-2.500583	P JH	-0.31540108
-2.1611407	AE JH	-0.6757285
-2.1103776	S JH	-0.7031927
-1.8500499	AY JH	-0.90503687
-1.9585055	L JH	-1.1280513
-2.0701861	K JH	-0.87351775
-1.882313	M JH	-0.87676096
-2.1733146	AO JH	-0.31540108
-2.3951654	F JH	-0.30314222
-2.0854187	R JH	-0.942615
-2.0997152	V JH	-0.7204076
-2.2833166	G JH	-0.5152119
-1.947735	OW JH	-0.29844245
-1.75959	NG JH	-0.36517194
-2.067175	AA JH	-0.29714015
-2.3050933	SH JH	-0.30800435
-2.2387285	CH JH	-0.30617464
-3.9841843	<s> UW	-0.30617464
-1.450282	T UW	-2.041835
-2.737442	AH UW	-0.31540108
-1.4687831	D UW	-1.5523252
-1.9894426	Z UW	-0.3651719
-1.1989344	JH UW	-0.70430565
-1.4810162	N UW	-1.1043303
-1.3830516	B UW	-0.79575056
-2.2634618	ER UW	-0.3042423
-1.7634982	W UW	-0.50616455
-2.6838632	IY UW	-0.31540108
-1.6446809	P UW	-1.2290229
-1.5474361	S UW	-1.1419578
-1.5087097	L UW	-0.84255797
-1.779213	K UW	-1.5661293
-1.4284246	M UW	-1.3636621
-1.4082061	F UW	-1.1167923
-1.2753536	R UW	-1.3850632
-1.5993636	G UW	-0.51844716
-0.74641806	Y UW	-1.977204
-1.2341813	HH UW	-1.1494002
-1.258882	SH UW	-0.8389408
-1.3737861	CH UW	-0.9087229
-1.2969525	ZH UW	-0.31540108
-1.7369928	<s> N	-1.5339535
-1.6799916	T N	-1.3441216
-1.2995869	AH N	-2.3377821
-1.6624718	D N	-1.3487839
-1.256522	EY N	-1.2950597
-1.1011193	IH N	-2.0184383
-1.5557054	Z N	-1.605705
-1.9008777	JH N	-0.33676618
-1.324807	UW N	-1.2433571
-1.6685246	N N	-1.1759917
-2.458632	B N	-0.31540108
-1.427866	ER N	-1.2159729
-1.8812386	TH N	-0.29714015
-1.0157335	EH N	-1.9033862
-1.4896818	IY N	-1.2890966
-1.0012538	AW N	-1.28478
-2.268389	DH N	-0.31540108
-2.010729	P N	-0.3013875
-1.0552294	AE N	-1.9054246
-1.5600373	S N	-1.1289226
-1.3321109	AY N	-1.5379692
-1.7579103	L N	-1.0994157
-1.6979579	K N	-0.683485
-1.8261642	M N	-1.3681974
-1.0304364	AO N	-1.1056396
-2.2262084	F N	-0.4513457
-1.9011947	R N	-1.136148
-1.9615068	V N	-0.8459672
-1.8870202	G N	-0.736706
-1.241322	OW N	-1.3477384
-1.5853839	NG N	-0.7143335
-0.99146044	AA N	-1.7154077
-2.020971	SH N	-0.3038753
-1.681061	UH N	-0.31540108
-1.3988229	OY N	-0.6189555
-1.8432645	CH N	-0.3261188
-1.9563969	<s> B	-1.1746247
-1.5745466	T B	-1.4251193
-1.351201	AH B	-1.7455715
-1.6151363	D B	-1.1701488
-1.3637855	EY B	-1.3637965
-1.881298	IH B	-0.4948303
-1.4692974	Z B	-1.5105889
-1.8038516	JH B	-0.3667294
-1.4606949	UW B	-1.3856844
-1.7016491	N B	-1.3362759
-2.3657832	B B	-0.29876867
-1.4461509	ER B	-1.0211985
-1.5749656	TH B	-0.42457858
-1.7565616	EH B	-0.6815722
-1.5573406	IY B	-1.409301
-1.733676	AW B	-0.5224343
-2.2746038	DH B	-0.29822513
-1.8084812	P B	-0.3999107
-1.3633643	AE B	-0.7888462
-1.6042013	S B	-1.2707381
-1.4691992	AY B	-1.2325084
-1.8004181	L B	-1.2033341
-1.6411513	K B	-0.8474899
-1.7033018	M B	-1.4355483
-2.0380082	AO B	-0.29714015
-1.7488323	F B	-0.4043951
-1.837093	R B	-1.1221734
-1.6633523	V B	-0.8186071
-1.9885024	G B	-0.5316786
-1.4358788	OW B	-1.1571546
-1.4592487	NG B	-0.7766626
-1.4355155	AA B	-0.91989577
-1.8937988	SH B	-0.6261276
-1.8546736	OY B	-0.30314222
-1.6977501	CH B	-0.5055409
-3.401318	<s> ER	-0.32944968
-1.4902859	T ER	-1.6651311
-2.3964849	AH ER	-0.93191093
-1.5731508	D ER	-1.1918917
-2.1562579	EY ER	-0.4944284
-1.5580325	Z ER	-0.6251523
-1.0955455	JH ER	-1.2611496
-2.1908882	UW ER	-0.32370275
-1.5622971	N ER	-0.855699
-1.2974373	B ER	-1.1999705
-1.9844787	ER ER	-0.3803845
-1.1732947	TH ER	-1.2947468
-1.057416	W ER	-1.497391
-1.7739834	IY ER	-0.6137584
-0.81455517	AW ER	-1.1113133
-1.4717029	DH ER	-1.3826892
-1.2966473	P ER	-0.917804
-1.5417311	S ER	-0.9547009
-1.470608	AY ER	-0.91255444
-1.3880236	L ER	-1.188596
-1.4154171	K ER	-0.8589705
-1.4226967	M ER	-0.8856702
-1.2875857	F ER	-1.355357
-1.9084479	R ER	-0.57767797
-1.3123876	V ER	-1.3748189
-1.1519387	G ER	-1.2104443
-2.3278835	OW ER	-0.33983514
-1.75959	NG ER	-0.5674115
-0.9932769	Y ER	-0.84636873
-1.0653095	HH ER	-1.3129613
-1.307561	SH ER	-1.0666318
-1.3375329	CH ER	-1.0664655
-1.27841	ZH ER	-0.30358192
-2.838808	<s> TH	-0.85788596
-1.7938282	T TH	-1.0995803
-1.5809805	AH TH	-1.2565066
-1.7839863	D TH	-1.2403691
-1.6253312	EY TH	-0.4337877
-2.08425	IH TH	-1.0385878
-1.7021916	Z TH	-1.2658241
-2.2173734	JH TH	-0.30314222
-1.7340753	UW TH	-1.0705605
-1.9189723	N TH	-1.2285796
-1.5741518	ER TH	-0.903895
-2.309177	TH TH	-0.31540108
-1.9601642	EH TH	-0.63801944
-1.585459	IY TH	-1.4053246
-1.9233507	AW TH	-0.7117697
-2.12499	P TH	-0.3042423
-1.6278577	AE TH	-0.78882694
-2.1150675	S TH	-0.5258527
-1.6387559	AY TH	-1.3332224
-2.1109068	L TH	-0.76759076
-2.0071394	K TH	-0.6627004
-1.8342433	M TH	-1.6288822
-1.5348052	AO TH	-0.6211095
-2.4086618	F TH	-0.30719015
-1.9938766	R TH	-0.8385186
-1.8791193	V TH	-0.9041085
-2.1840293	OW TH	-0.61921585
-1.6071441	NG TH	-0.29822513
-2.0757465	AA TH	-0.3020446
-1.8820355	OY TH	-0.2933631
-1.8566364	CH TH	-0.30800435
-0.9640721	<s> W	-2.31902
-1.4054623	T W	-1.8144406
-1.3654455	AH W	-1.718823
-1.5522621	D W	-1.4990516
-1.621227	EY W	-1.0998262
-2.0768158	IH W	-0.3007314
-1.4901724	Z W	-1.5690539
-1.7245929	JH W	-0.5982784
-1.659549	UW W	-1.6168339
-1.7027644	N W	-1.5462304
-2.0864687	B W	-0.4407586
-1.4652395	ER W	-1.211908
-1.4776337	TH W	-0.60105574
-1.4910015	IY W	-1.984973
-1.9055159	AW W	-0.6127137
-2.2809086	DH W	-0.7300993
-1.7126563	P W	-0.67014676
-1.4061364	S W	-1.5650756
-1.3331379	AY W	-1.9035715
-1.7228508	L W	-1.4441693
-1.3691308	K W	-1.5181913
-1.7045099	M W	-1.7575725
-2.0432758	AO W	-0.29486996
-1.750335	F W	-0.5346766
-1.9060167	R W	-1.3861434
-1.6650957	V W	-1.1172719
-1.5060205	G W	-1.6831195
-1.5621418	OW W	-1.336563
-1.3616225	NG W	-1.1257268
-1.7455145	AA W	-0.7492776
-1.7955543	SH W	-0.45103666
-1.5488865	OY W	-0.742028
-1.5889468	CH W	-0.7188376
-1.2763977	ZH W	-0.31540108
-2.0769315	<s> EH	-1.285342
-1.4455721	T EH	-1.9096113
-2.0161548	AH EH	-1.0727248
-1.4633553	D EH	-1.0976806
-1.8452082	EY EH	-0.9672319
-1.5114026	Z EH	-1.101907
-1.1927248	JH EH	-0.8525859
-1.659549	UW EH	-1.1304438
-1.3254598	N EH	-1.5754786
-1.2968981	B EH	-1.3419266
-1.4652395	ER EH	-1.1045849
-1.7866185	TH EH	-0.42316386
-0.99571556	W EH	-2.189767
-1.5581112	IY EH	-0.9988712
-2.0186145	AW EH	-0.59439313
-0.8734517	DH EH	-2.3928485
-1.4326982	P EH	-1.5598196
-1.3918723	S EH	-1.9052529
-1.9749199	AY EH	-0.5835824
-1.2839899	L EH	-1.6180086
-1.4148788	K EH	-1.2476783
-1.2786739	M EH	-2.1124322
-2.166223	AO EH	-0.31540108
-1.3219411	F EH	-1.1333386
-1.1933525	R EH	-1.8788719
-1.1193564	V EH	-1.7055104
-1.24083	G EH	-1.9461074
-2.0429597	OW EH	-1.0848142
-1.8585995	NG EH	-0.8917513
-0.86924165	Y EH	-1.6768097
-1.1312367	HH EH	-1.7593753
-1.5848261	SH EH	-0.59825563
-1.8613542	OY EH	-0.31540108
-1.2178932	CH EH	-1.0718906
-2.5586255	<s> IY	-1.0300866
-1.4455721	T IY	-1.5436105
-2.5459104	AH IY	-0.5326188
-1.4797399	D IY	-1.5000662
-2.304439	EY IY	-0.49898994
-1.5337242	Z IY	-0.921823
-1.1927248	JH IY	-0.69907635
-1.7270966	UW IY	-1.1811128
-1.3854456	N IY	-1.6541362
-1.2296294	B IY	-1.2468611
-1.5717629	ER IY	-1.1541352
-1.3292594	TH IY	-0.80513215
-1.1098133	W IY	-1.4984686
-1.7727174	IY IY	-0.8608698
-1.9055159	AW IY	-0.31540108
-1.1008203	DH IY	-1.6183951
-1.2638644	P IY	-1.5087703
-1.420885	S IY	-1.2395322
-1.7087407	AY IY	-0.9271576
-1.3111248	L IY	-1.6012936
-1.4482951	K IY	-1.0468376
-1.2786739	M IY	-1.6065058
-1.3801404	F IY	-1.1164713
-1.1795683	R IY	-1.9118761
-1.2049317	V IY	-0.89673674
-1.991824	G IY	-0.8663132
-2.0429597	OW IY	-0.3999107
-1.7532963	NG IY	-0.3007314
-2.2993085	Y IY	-0.31540108
-1.0807191	HH IY	-1.7761942
-1.0176744	SH IY	-1.4862607
-1.8613542	OY IY	-0.29714015
-1.2178932	CH IY	-0.83538306
-1.2763977	ZH IY	-0.31540108
-2.6711326	<s> AW	-1.1735038
-1.5077145	T AW	-1.3902731
-2.6806343	AH AW	-0.3020446
-1.516923	D AW	-1.5815377
-2.170491	EY AW	-0.41830182
-2.1274383	Z AW	-1.222782
-1.7364267	UW AW	-1.0677766
-1.3564255	N AW	-1.1550009
-1.9974742	B AW	-2.0277548
-1.5288422	ER AW	-1.1693655
-1.4400468	TH AW	-2.0257568
-2.3376224	W AW	-0.3092284
-1.9187423	IY AW	-1.0848142
-2.3070855	DH AW	-0.29714015
-1.569751	P AW	-1.0413259
-1.585371	S AW	-1.1389987
-2.5708451	AY AW	-0.41830182
-1.6017861	L AW	-1.2211306
-1.5267711	K AW	-0.9922915
-1.4643375	M AW	-1.2592565
-1.5021453	F AW	-1.5902984
-1.5750921	R AW	-1.2508107
-1.7314891	V AW	-0.89542305
-2.3033435	G AW	-0.30314222
-2.0571685	OW AW	-1.3213918
-1.779038	NG AW	-0.9301852
-1.1321837	HH AW	-1.4276003
-1.5379192	SH AW	-0.8263489
-1.8891541	OY AW	-0.31540108
-2.367776	CH AW	-0.29714015
-0.9323315	<s> DH	-2.5840335
-1.556094	T DH	-2.019197
-1.4586443	AH DH	-1.8686793
-1.5138825	D DH	-1.9565703
-1.6658278	EY DH	-1.1642928
-2.395785	IH DH	-1.2744925
-1.4692974	Z DH	-2.2000573
-2.0344925	JH DH	-0.6086335
-1.5993838	UW DH	-1.8063117
-1.6695579	N DH	-2.195948
-2.3657832	B DH	-0.31540108
-1.5040914	ER DH	-1.622119
-1.5749656	TH DH	-0.59925514
-1.9505111	EH DH	-1.7704843
-1.4701234	IY DH	-1.4065702
-1.733676	AW DH	-0.49273837
-2.2746038	DH DH	-1.1045582
-1.8666812	P DH	-1.0402566
-2.339467	AE DH	-1.0466907
-1.6277063	S DH	-1.6091021
-1.8466825	AY DH	-1.1739465
-1.7216285	L DH	-1.4922819
-1.6989912	K DH	-1.5943931
-1.6686488	M DH	-1.4887722
-2.1592455	AO DH	-0.87059957
-1.926114	F DH	-1.0922554
-1.837093	R DH	-1.6406931
-1.5663233	V DH	-1.8050363
-2.1167018	G DH	-0.30800435
-1.598839	OW DH	-1.4272085
-1.4592487	NG DH	-1.46685
-1.8254886	AA DH	-1.7622195
-1.8937988	SH DH	-0.8383723
-1.7278475	OY DH	-0.31540108
-1.6977501	CH DH	-0.7937684
-2.0609312	<s> P	-1.1551049
-1.7318302	T P	-0.9938674
-1.4251416	AH P	-1.5236986
-1.6895864	D P	-0.80340946
-1.3637855	EY P	-0.89693266
-1.5279363	IH P	-0.9000135
-1.5564797	Z P	-1.150342
-2.0344925	JH P	-0.30617464
-1.5480739	UW P	-1.0966749
-1.7739618	N P	-1.0494831
-2.4665227	B P	-0.31540108
-1.6220621	ER P	-0.8869064
-1.6341467	TH P	-0.29822513
-1.4383789	EH P	-1.2102699
-1.5115463	IY P	-1.3572077
-1.8997301	AW P	-0.3020446
-2.2746038	DH P	-0.30324197
-2.11097	P P	-0.30314222
-1.2015717	AE P	-1.6166148
-1.3914266	S P	-1.7266806
-1.5176593	AY P	-0.9629496
-1.8967413	L P	-1.072759
-1.8902016	K P	-0.60307807
-1.8277681	M P	-1.3869294
-1.8615024	AO P	-0.31540108
-2.006011	F P	-0.40469247
-1.9821639	R P	-0.9018753
-1.8678292	V P	-0.7880764
-2.1167018	G P	-0.3586296
-1.2974362	OW P	-1.0010326
-1.4592487	NG P	-0.42037302
-1.2334102	AA P	-1.1365646
-2.2893164	SH P	-0.50079566
-1.7278475	OY P	-0.30314222
-1.8459061	CH P	-0.4494928
-2.033347	<s> AE	-1.2149264
-1.4892488	T AE	-1.5352392
-1.9042419	AH AE	-0.84507716
-1.4791801	D AE	-1.3390999
-1.8429335	EY AE	-0.7122217
-1.4895077	Z AE	-1.376064
-1.1921088	JH AE	-1.5763097
-1.6575782	UW AE	-0.9165173
-1.4737058	N AE	-1.3090831
-1.3149176	B AE	-1.4172951
-1.5709696	ER AE	-0.8278618
-1.360927	TH AE	-1.0666318
-1.8426431	W AE	-0.509622
-1.5338401	IY AE	-1.1995347
-2.0111225	AW AE	-0.31540108
-0.8587057	DH AE	-2.741603
-1.4096683	P AE	-1.5219543
-1.4204085	S AE	-1.5382
-1.4691992	AY AE	-1.4675081
-1.2835447	L AE	-1.8214949
-1.3406539	K AE	-1.9055885
-1.3519078	M AE	-1.3666483
-2.1592455	AO AE	-0.30314222
-1.3399022	F AE	-1.285409
-1.2527919	R AE	-1.4212854
-1.2873443	V AE	-0.8650625
-1.3791944	G AE	-1.0705131
-1.686155	OW AE	-0.4995077
-1.4592487	NG AE	-1.0238711
-2.219122	AA AE	-0.29714015
-2.1290908	Y AE	-0.8335235
-1.0352806	HH AE	-2.216844
-1.251009	SH AE	-0.7649191
-1.8546736	OY AE	-0.31540108
-1.2609116	CH AE	-1.0692806
-1.5706974	<s> S	-1.4897236
-1.5931594	T S	-1.7437859
-1.3645873	AH S	-1.8240948
-1.6143719	D S	-1.1982596
-1.3395388	EY S	-1.0911188
-1.2026013	IH S	-1.8336024
-1.4888439	Z S	-1.4436077
-1.8013406	JH S	-0.4985332
-1.4216768	UW S	-1.4345486
-1.7005366	N S	-1.5860039
-2.0798807	B S	-0.9489998
-1.4455566	ER S	-1.4472306
-1.573418	TH S	-0.61004156
-1.1106163	EH S	-1.4246396
-1.4502031	IY S	-1.4556913
-1.3404863	AW S	-1.1022809
-2.268389	DH S	-0.37063867
-1.5638399	P S	-0.68533176
-1.2209421	AE S	-1.5664972
-1.6269394	S S	-1.1143754
-1.2846397	AY S	-1.4030498
-1.7204099	L S	-1.1554
-1.6681443	K S	-1.634744
-1.702097	M S	-1.2976844
-1.0827587	AO S	-1.249456
-1.7985966	F S	-0.53598124
-1.8350294	R S	-1.040624
-1.7194449	V S	-0.8979666
-2.112279	G S	-0.58791316
-1.338176	OW S	-1.1614071
-1.4560854	NG S	-0.80417734
-1.3667381	AA S	-1.5545193
-2.1782057	SH S	-0.5057912
-1.681061	UH S	-0.38122582
-1.0712838	OY S	-0.71488583
-1.6958704	CH S	-0.3979637
-0.84564906	<s> AY	-2.0109718
-1.4902859	T AY	-1.4047012
-2.5524673	AH AY	-0.5224864
-1.4638951	D AY	-0.9836014
-2.0274353	EY AY	-0.43410504
-1.5829581	Z AY	-0.70807666
-1.8089174	JH AY	-0.6302264
-1.6615287	UW AY	-0.45302778
-1.3859837	N AY	-1.3788182
-1.2624601	B AY	-1.2205576
-1.5054525	ER AY	-1.0028453
-2.02364	TH AY	-0.3086716
-1.091786	W AY	-1.3490679
-1.7739834	IY AY	-0.46893978
-1.9113798	AW AY	-0.30978584
-1.8077117	DH AY	-0.30581895
-1.599186	P AY	-0.71701366
-2.4819362	AE AY	-0.31540108
-1.4689294	S AY	-1.3285998
-2.1576843	AY AY	-0.4647739
-1.2978052	L AY	-1.8891568
-1.6165931	K AY	-0.84711707
-1.279128	M AY	-1.6551964
-1.2711264	F AY	-1.4324821
-1.2080743	R AY	-1.5185883
-1.337318	V AY	-0.785614
-1.6859117	G AY	-0.5162375
-1.740894	OW AY	-0.5707933
-1.75959	NG AY	-0.3009499
-1.231492	HH AY	-0.83639485
-1.4869549	SH AY	-0.73340833
-1.868139	OY AY	-0.31540108
-1.1787547	CH AY	-1.4584056
-1.7152579	<s> L	-1.5007517
-1.6799916	T L	-1.4814214
-1.3244323	AH L	-1.9142115
-1.5921825	D L	-1.1126156
-1.3878722	EY L	-1.1458837
-1.1711087	IH L	-1.7197633
-1.5100076	Z L	-1.4443073
-1.9008777	JH L	-0.3586296
-1.324807	UW L	-1.4321734
-1.6685246	N L	-1.6008039
-1.2445389	B L	-1.3194487
-1.4455566	ER L	-1.3058316
-1.6323736	TH L	-0.47305056
-1.0605888	EH L	-1.5823702
-1.5813713	IY L	-1.3725399
-1.4100403	AW L	-0.736706
-2.136231	DH L	-0.38056874
-1.2329264	P L	-1.6572005
-1.1823554	AE L	-1.0915006
-1.4199325	S L	-1.4912043
-1.2998941	AY L	-1.4748585
-1.7989573	L L	-1.0881152
-1.3539573	K L	-1.5213721
-1.7807552	M L	-1.3881747
-0.8197801	AO L	-1.6204302
-1.2538263	F L	-1.2264252
-1.9011947	R L	-0.9339485
-1.61059	V L	-0.8995808
-1.2811558	G L	-1.7592453
-1.1921281	OW L	-1.3865774
-1.5853839	NG L	-0.85092527
-1.1686149	AA L	-1.2665046
-1.8906939	SH L	-0.6146854
-0.9014319	UH L	-0.75153965
-0.75758225	OY L	-0.6771924
-1.7633443	CH L	-0.47133875
-1.7038455	<s> K	-1.4105886
-1.6344091	T K	-1.3245915
-1.4088371	AH K	-1.7000618
-1.5921825	D K	-1.0370302
-1.3630335	EY K	-1.3321385
-1.1711087	IH K	-1.4992174
-1.4686637	Z K	-1.440218
-1.8013406	JH K	-0.5162375
-1.4216768	UW K	-1.4040462
-1.7005366	N K	-1.2061659
-2.3595145	B K	-0.30314222
-1.5701776	ER K	-1.2429568
-1.6323736	TH K	-0.47306865
-1.1106163	EH K	-1.5018029
-1.469494	IY K	-1.4321697
-1.8940203	AW K	-0.7104906
-2.268389	DH K	-0.3586296
-1.8067659	P K	-0.37615862
-1.1469193	AE K	-1.2548584
-1.3771987	S K	-1.4538716
-1.2998941	AY K	-1.6266335
-1.7579103	L K	-1.0793473
-1.6979579	K K	-0.97501326
-1.7807552	M K	-1.2829239
-1.3944616	AO K	-1.2531154
-1.9238635	F K	-0.30122334
-1.9011947	R K	-1.0618503
-1.865052	V K	-0.85958564
-2.112279	G K	-0.40143114
-1.241322	OW K	-1.0652578
-1.2756778	NG K	-1.2325076
-1.1889703	AA K	-1.1032804
-2.020971	SH K	-0.50332415
-0.82429	UH K	-1.4609492
-1.8480943	OY K	-0.31540108
-1.6958704	CH K	-0.5117205
-1.4043804	<s> M	-1.7816179
-1.5732875	T M	-1.6582177
-1.3370066	AH M	-1.8726172
-1.5502808	D M	-1.5621889
-1.3870773	EY M	-1.3379198
-1.2022732	IH M	-1.6077619
-1.5093118	Z M	-1.5224612
-1.8977405	JH M	-0.4055882
-1.4994495	UW M	-1.2997462
-1.6377485	N M	-1.3768086
-2.353335	B M	-0.31540108
-1.5940896	ER M	-1.401168
-1.5718759	TH M	-0.32894966
-1.147111	EH M	-1.2347114
-1.4890234	IY M	-1.3092114
-1.5925394	AW M	-1.5876739
-2.262262	DH M	-1.4094605
-1.8627685	P M	-0.78260684
-1.1820195	AE M	-1.2961438
-1.4504417	S M	-1.435875
-1.467795	AY M	-1.3225642
-1.7975016	L M	-1.1460426
-1.6671817	K M	-1.053291
-1.7793156	M M	-1.163469
-1.8545834	AO M	-0.46338958
-1.8548102	F M	-0.5200739
-1.7758242	R M	-1.1769675
-1.609052	V M	-1.4220254
-2.1079009	G M	-0.3586296
-1.4621029	OW M	-1.1811988
-1.5811596	NG M	-0.9589783
-1.2808342	AA M	-2.0075576
-1.707296	SH M	-0.51017606
-1.5042368	UH M	-1.3412867
-1.7180576	OY M	-0.31540108
-1.6358469	CH M	-0.77931666
-1.2704163	ZH M	-0.5152119
-2.253194	<s> AO	-1.5877733
-1.4755328	T AO	-1.8657255
-2.401123	AH AO	-0.63465625
-1.5157043	D AO	-1.7274284
-1.9309812	EY AO	-0.85763454
-1.5128021	Z AO	-1.36705
-1.4191952	JH AO	-1.3477207
-1.7317365	UW AO	-1.0434895
-1.4200251	N AO	-1.440783
-1.3778269	B AO	-1.9551364
-1.7504004	ER AO	-1.1467756
-1.2721089	TH AO	-1.3026041
-1.0576239	W AO	-1.9648445
-1.6111456	IY AO	-1.4319863
-2.0339983	AW AO	-0.30314222
-1.3142914	P AO	-1.7181158
-1.4530009	S AO	-1.1810453
-1.7531811	AY AO	-1.2024435
-1.356349	L AO	-1.2576218
-1.3701	K AO	-1.7093496
-1.3535223	M AO	-2.0317473
-1.2256395	F AO	-2.2462277
-1.5104287	R AO	-1.3174719
-1.727437	V AO	-1.0279111
-1.4729425	G AO	-1.2662755
-1.9505507	OW AO	-0.50515765
-1.6027039	NG AO	-0.57427084
-2.2375724	AA AO	-0.31540108
-0.8350514	Y AO	-2.7061596
-1.2317901	HH AO	-1.1708486
-1.3083696	SH AO	-1.1493404
-1.429614	CH AO	-0.7993722
-2.0112038	<s> F	-1.119819
-1.593818	T F	-1.3147029
-1.4415699	AH F	-1.5548437
-1.5323323	D F	-1.2647835
-1.6198676	EY F	-0.6989755
-1.2195888	IH F	-1.3022387
-1.5329894	Z F	-1.3732533
-1.8038516	JH F	-0.6230011
-1.7247951	UW F	-1.0310279
-1.6695579	N F	-1.3213918
-2.3657832	B F	-0.29714015
-1.5475137	ER F	-0.9430059
-1.4344019	TH F	-0.5326188
-1.5689603	EH F	-1.2617172
-1.5338401	IY F	-1.191124
-1.8997301	AW F	-0.50616455
-2.2746038	DH F	-0.36659807
-1.8084812	P F	-0.4626844
-1.2419877	AE F	-1.3522885
-1.7069786	S F	-1.1587898
-1.4927537	AY F	-1.2123753
-1.6870172	L F	-1.1623116
-1.6691091	K F	-1.1070247
-1.7033018	M F	-1.1078577
-1.0069509	AO F	-1.0844393
-2.103997	F F	-0.40469247
-1.837093	R F	-1.1705743
-1.7884893	V F	-0.82912636
-1.9885024	G F	-0.4255243
-1.5609883	OW F	-0.6128443
-1.5896496	NG F	-1.1434008
-1.8254886	AA F	-1.3281809
-2.0251675	SH F	-0.6243691
-1.8546736	OY F	-1.3739266
-1.6977501	CH F	-0.60834
-2.2208872	<s> R	-1.1127306
-1.4308798	T R	-2.0304484
-1.4943709	AH R	-1.4730551
-1.4313282	D R	-1.7838591
-1.6643215	EY R	-0.54350966
-1.2365574	IH R	-1.3326178
-1.5322558	Z R	-1.3741026
-2.2879765	JH R	-0.31540108
-1.7225057	UW R	-1.1705163
-1.7350973	N R	-1.1409146
-1.1986773	B R	-1.6471511
-1.5701776	ER R	-0.9404949
-1.1104081	TH R	-1.8038814
-1.0451165	EH R	-1.9523107
-1.5331113	IY R	-1.2769946
-1.8940203	AW R	-0.3740512
-2.268389	DH R	-0.31540108
-1.19154	P R	-1.6697187
-1.3357445	AE R	-1.3783026
-1.7359946	S R	-1.0261492
-1.4461894	AY R	-1.1639283
-1.7579103	L R	-1.2059137
-1.398052	K R	-1.588319
-1.8768816	M R	-1.1384611
-0.776489	AO R	-1.918952
-1.2095954	F R	-2.052138
-1.9792844	R R	-0.90356976
-1.6616158	V R	-1.5347921
-1.1046438	G R	-1.6507685
-1.597584	OW R	-0.55192506
-1.5853839	NG R	-0.64447147
-0.99146044	AA R	-1.853779
-1.4833069	SH R	-0.5234985
-0.65161896	UH R	-0.9312025
-1.5423784	OY R	-0.30617464
-1.9412854	CH R	-0.43465567
-2.7395265	<s> V	-0.77978665
-1.8588339	T V	-0.6884018
-1.3386188	AH V	-1.7037569
-1.8959211	D V	-0.6068743
-1.47516	EY V	-1.1035763
-1.7504249	IH V	-1.3722463
-1.6676726	Z V	-1.4039061
-1.5511408	UW V	-0.9495493
-1.9153132	N V	-0.9348742
-2.378599	B V	-0.30617464
-1.7492039	ER V	-0.6643254
-2.02364	TH V	-0.30617464
-1.0460078	EH V	-2.1573465
-1.3985934	IY V	-1.2854635
-2.0262382	AW V	-0.31540108
-2.2873065	DH V	-0.31540108
-2.500583	P V	-0.31540108
-1.8158752	AE V	-1.4481148
-1.9839299	S V	-1.1022179
-1.7099632	AY V	-1.2614238
-1.8033545	L V	-0.6857336
-2.0701861	K V	-0.52572405
-2.0077527	M V	-0.81219757
-2.1733146	AO V	-0.31540108
-2.4968338	F V	-0.31540108
-2.0854187	R V	-0.7024622
-1.9720031	V V	-0.58587337
-2.387101	G V	-0.31540108
-1.3402499	OW V	-1.1257476
-1.8666364	NG V	-0.447055
-1.7475427	AA V	-1.0876931
-2.1965835	SH V	-0.29876867
-2.3421137	CH V	-0.31540108
-1.9377389	<s> G	-1.3968112
-1.7588234	T G	-1.1081676
-1.3788421	AH G	-1.5490376
-1.7463762	D G	-0.6769593
-1.7155385	EY G	-0.7091167
-1.2930564	IH G	-1.1411982
-1.4888439	Z G	-1.3474616
-2.2879765	JH G	-0.31540108
-1.5976675	UW G	-1.4372312
-1.772648	N G	-0.88276565
-2.3595145	B G	-0.30314222
-1.6211714	ER G	-1.2373633
-1.7006085	TH G	-0.34278017
-1.2321973	EH G	-0.8813684
-1.5331113	IY G	-1.2566228
-1.7297723	AW G	-0.31540108
-2.268389	DH G	-0.31540108
-2.1075344	P G	-0.3042423
-1.4922464	AE G	-0.9205092
-1.8028744	S G	-0.95275384
-1.5168738	AY G	-1.2651182
-1.8442929	L G	-1.1780207
-1.8885977	K G	-0.5162876
-1.8768816	M G	-1.3668011
-1.858029	AO G	-0.90988237
-2.1006117	F G	-0.48901337
-1.7776244	R G	-1.002685
-2.0856879	V G	-0.62342256
-2.2641728	G G	-0.29876867
-1.5598378	OW G	-0.8620683
-1.2075056	NG G	-1.8595899
-1.3667381	AA G	-0.9838496
-2.281638	SH G	-0.299858
-1.5068272	UH G	-1.5501424
-1.8480943	OY G	-0.31540108
-1.9412854	CH G	-0.34278017
-2.6535246	<s> OW	-0.7146132
-1.4602942	T OW	-1.3199259
-2.654794	AH OW	-1.1142331
-1.594365	D OW	-0.8104615
-2.1562579	EY OW	-0.30617464
-1.5829581	Z OW	-1.3537351
-1.4181578	JH OW	-0.72422826
-1.8099039	UW OW	-0.45413858
-1.3121282	N OW	-1.5285856
-1.3996315	B OW	-1.1815069
-1.6519608	ER OW	-0.6544706
-2.02364	TH OW	-0.29486996
-1.322246	W OW	-1.5180975
-1.5838194	IY OW	-0.7814072
-2.0262382	AW OW	-0.85763454
-1.1269068	DH OW	-1.0179349
-1.331535	P OW	-1.3775526
-1.452488	S OW	-1.0858663
-1.7099632	AY OW	-0.87134826
-1.4050659	L OW	-1.2370182
-1.4154171	K OW	-0.9843128
-1.4420255	M OW	-1.2337886
-1.424491	F OW	-1.4357976
-1.1938226	R OW	-1.3510557
-1.337318	V OW	-0.6873745
-1.1360593	G OW	-1.5038567
-1.8673422	OW OW	-0.35360837
-1.8666364	NG OW	-0.5373423
-2.231335	AA OW	-0.31540108
-1.3967736	Y OW	-0.73810136
-1.1886835	HH OW	-1.6735543
-1.2791212	SH OW	-0.7633826
-1.5904157	CH OW	-0.60166764
-1.7378027	AH NG	-1.0809752
-1.1355832	IH NG	-2.0470402
-1.8962413	EH NG	-0.5997987
-1.211164	AE NG	-1.5929563
-1.574354	AO NG	-1.0899094
-2.7188406	OW NG	-0.31540108
-1.8966993	AA NG	-0.81624186
-2.0854073	OY NG	-0.3020446
-1.9817863	<s> AA	-1.3165065
-1.418425	T AA	-2.5955455
-1.8595247	AH AA	-0.89707917
-1.4176129	D AA	-1.5095351
-1.6673392	EY AA	-1.3544357
-1.4699318	Z AA	-1.6121056
-1.171354	JH AA	-1.5264292
-1.7270966	UW AA	-1.6607273
-1.3544179	N AA	-1.8957211
-1.2619627	B AA	-1.7342563
-1.596605	ER AA	-0.97160345
-1.635927	TH AA	-0.54324055
-0.9679534	W AA	-2.3448699
-1.6375206	IY AA	-1.3448337
-1.9055159	AW AA	-0.8263489
-2.2809086	DH AA	-0.31540108
-1.2961187	P AA	-1.6015954
-1.4683971	S AA	-1.2952751
-1.6706595	AY AA	-1.2269719
-1.3710802	L AA	-1.3381419
-1.3277459	K AA	-1.5871835
-1.3858616	M AA	-1.5388844
-1.3598616	F AA	-1.6070288
-1.2697155	R AA	-1.3925596
-1.3910018	V AA	-0.8389408
-1.1514568	G AA	-1.6089618
-1.6876944	OW AA	-0.7150527
-1.7532963	NG AA	-1.295733
-2.0629518	AA AA	-0.29876867
-1.6307802	Y AA	-0.6291552
-1.1312367	HH AA	-1.3050903
-1.1589828	SH AA	-1.1055169
-1.7328264	OY AA	-0.30314222
-1.310205	CH AA	-1.0115206
-1.6007572	<s> Y	-1.8242798
-1.6358587	T Y	-1.7424692
-1.7122484	AH Y	-1.1654295
-1.6904955	D Y	-1.771178
-1.7189355	EY Y	-0.90732235
-1.5337242	Z Y	-1.6007437
-1.8063772	JH Y	-0.59925514
-1.659549	UW Y	-2.04608
-1.7027644	N Y	-1.6590071
-1.3154795	B Y	-1.9497807
-1.7480108	ER Y	-1.26085
-2.1790206	TH Y	-0.29714015
-2.4065847	EH Y	-0.31540108
-1.6094062	IY Y	-1.4816581
-1.9055159	AW Y	-0.49898994
-2.2809086	DH Y	-1.2575257
-1.535717	P Y	-1.518768
-1.7079008	S Y	-1.270949
-1.8483629	AY Y	-1.2585741
-1.6881456	L Y	-1.5943931
-1.4482951	K Y	-1.3233263
-1.4035861	M Y	-1.4649327
-2.0432758	AO Y	-1.0076482
-1.4473637	F Y	-1.6964962
-1.7812473	R Y	-1.7234917
-1.4210541	V Y	-1.5058366
-1.81137	G Y	-1.0275843
-1.6416913	OW Y	-1.0668507
-1.5939575	NG Y	-0.93085426
-2.0629518	AA Y	-0.30314222
-1.4265938	HH Y	-1.2393526
-2.0294049	SH Y	-0.6554657
-1.7328264	OY Y	-0.29714015
-1.7677484	CH Y	-0.748085
-1.0500937	<s> HH	-2.1652417
-1.5745466	T HH	-1.7639917
-1.4251416	AH HH	-1.3928065
-1.5138825	D HH	-1.582987
-1.6198676	EY HH	-0.8621432
-2.2169719	IH HH	-0.84750587
-1.4895077	Z HH	-1.6026657
-1.9040378	JH HH	-0.5120436
-1.6575782	UW HH	-1.549598
-1.6396757	N HH	-1.5739695
-2.0831623	B HH	-0.30314222
-1.4839067	ER HH	-1.1305513
-1.7026839	TH HH	-0.55633414
-2.3998165	EH HH	-0.31540108
-1.5573406	IY HH	-1.6192111
-1.733676	AW HH	-0.38285652
-2.2746038	DH HH	-1.4862221
-1.8084812	P HH	-1.0841658
-1.6525567	S HH	-1.1756098
-1.3326241	AY HH	-1.660547
-1.7216285	L HH	-1.2561324
-1.6691091	K HH	-1.1956079
-1.7409614	M HH	-1.4891462
-1.6137118	AO HH	-0.8673943
-2.006011	F HH	-0.93559074
-1.779432	R HH	-1.1794198
-1.6633523	V HH	-1.1220546
-1.8896477	G HH	-0.5025624
-1.4639416	OW HH	-1.070868
-1.4592487	NG HH	-1.0446287
-1.6745518	AA HH	-0.5747938
-2.0251675	SH HH	-0.48848397
-1.684959	UH HH	-0.59439313
-1.7278475	OY HH	-0.29669684
-1.7655407	CH HH	-0.5740461
-1.470796	<s> SH	-1.8521417
-1.8239949	T SH	-0.8913338
-1.5358381	AH SH	-1.0505514
-1.8165644	D SH	-0.6965832
-1.3652935	EY SH	-1.7121503
-1.3835212	IH SH	-1.4118135
-1.5829581	Z SH	-0.9084549
-1.6028368	UW SH	-0.9793877
-1.7766011	N SH	-0.8856323
-2.4827473	B SH	-0.31540108
-1.8287185	ER SH	-0.44460356
-2.2926803	TH SH	-0.31540108
-1.8465391	EH SH	-0.48356834
-1.7009495	IY SH	-0.75014365
-1.9113798	AW SH	-0.39567864
-2.1179233	P SH	-1.3213918
-1.6259863	AE SH	-0.70705163
-1.9322757	S SH	-0.6628504
-1.9089792	AY SH	-0.6409871
-2.202167	L SH	-0.5987122
-1.8060343	K SH	-0.9946579
-2.0077527	M SH	-0.5890322
-2.048608	AO SH	-0.29714015
-1.9306502	F SH	-0.3651719
-1.9084479	R SH	-0.59908974
-2.2526658	V SH	-0.6781195
-1.5632983	OW SH	-0.87463963
-1.75959	NG SH	-0.30719015
-1.5654236	AA SH	-0.74978924
-2.3050933	SH SH	-0.31540108
-1.5146924	UH SH	-0.5779078
-1.868139	OY SH	-0.31540108
-1.9513015	CH SH	-0.5418067
-1.671318	T UH	-1.6854736
-1.8364788	D UH	-1.2786398
-2.3199422	JH UH	-0.30314222
-2.6212711	N UH	-0.2933631
-1.3061559	B UH	-2.2278616
-1.1330537	W UH	-1.7101884
-1.4451749	P UH	-1.4711105
-1.3971775	L UH	-2.0091279
-1.5806391	K UH	-1.5967991
-1.8576987	M UH	-0.6178742
-1.5737779	F UH	-1.4128389
-2.148404	R UH	-0.29876867
-2.5155215	V UH	-0.31540108
-1.2718133	G UH	-2.2394876
-0.9734336	Y UH	-1.9835591
-2.0265858	HH UH	-0.50616455
-1.1688493	SH UH	-1.7609001
-3.6103513	<s> OY	-0.7704843
-1.8353381	T OY	-0.6269735
-2.7476768	AH OY	-0.31540108
-2.2283187	D OY	-0.5997987
-2.6919026	Z OY	-0.31540108
-1.5114889	JH OY	-0.46233243
-1.7510259	N OY	-0.7080709
-1.3837092	B OY	-0.8944955
-2.7011852	ER OY	-0.31540108
-2.5381463	W OY	-0.31540108
-2.6942902	IY OY	-0.31540108
-1.6458613	P OY	-1.0203618
-2.326245	S OY	-0.39567864
-2.637983	AY OY	-0.31540108
-2.240732	L OY	-0.47747877
-2.1800072	K OY	-0.85763454
-2.5360043	M OY	-0.30314222
-1.801732	R OY	-0.6120878
-1.6847496	V OY	-0.8753008
-2.4790304	G OY	-0.7704843
-2.5223148	OW OY	-0.31540108
-1.9564277	NG OY	-0.31540108
-1.7209657	CH OY	-0.9301852
-2.7003672	<s> CH	-0.7262654
-1.9367611	T CH	-0.59560347
-1.5564873	AH CH	-1.0453577
-1.8153496	D CH	-0.59830546
-1.6673392	EY CH	-0.45553958
-1.6472429	IH CH	-1.0379523
-1.6085272	Z CH	-0.77225006
-2.3036094	JH CH	-0.2933631
-1.7270966	UW CH	-0.87877744
-1.8166488	N CH	-1.1717275
-2.4745593	B CH	-0.31540108
-1.827286	ER CH	-0.6814856
-2.284661	TH CH	-0.31540108
-2.0974083	EH CH	-0.3544357
-1.4910015	IY CH	-0.9526351
-1.737615	AW CH	-0.55731714
-2.2809086	DH CH	-0.31540108
-2.1144328	P CH	-0.64446723
-1.7417408	AE CH	-0.6089178
-1.9307306	S CH	-1.1769423
-2.0554	AY CH	-0.653835
-2.1984923	L CH	-0.7300005
-1.9429286	K CH	-1.0324231
-2.1812065	M CH	-0.6148056
-2.166223	AO CH	-0.31540108
-2.3885715	F CH	-0.30314222
-2.2063704	R CH	-0.70779866
-1.968476	V CH	-0.64395195
-2.3788939	G CH	-0.31540108
-1.8650161	OW CH	-0.3300733
-1.7532963	NG CH	-0.6261276
-2.0629518	AA CH	-1.0131568
-1.8613542	OY CH	-0.31540108
-2.333886	CH CH	-0.2933631
-1.570813	EY ZH	-1.2710867
-2.5547965	IH ZH	-1.5152118
-2.3922448	UW ZH	-1.1438667
-2.7139452	ER ZH	-1.1779697
-2.1903648	EH ZH	-0.9923331
-2.8748753	IY ZH	-0.81624186
-2.8565378	L ZH	-0.31540108
-2.70258	OW ZH	-0.5152119
-2.41327	AA ZH	-0.5652891

\3-grams:
-1.2171252	AH T </s>
-0.85760105	EY T </s>
-0.9545541	IH T </s>
-1.5928868	UW T </s>
-1.1614392	N T </s>
-0.9687517	ER T </s>
-0.9664131	EH T </s>
-1.0344975	IY T </s>
-1.0443614	AW T </s>
-0.8515777	P T </s>
-0.8461412	AE T </s>
-1.2023407	S T </s>
-0.5410501	AY T </s>
-0.9851966	L T </s>
-1.2978446	K T </s>
-1.922769	AO T </s>
-0.7492458	F T </s>
-1.1848181	R T </s>
-1.2166095	OW T </s>
-1.2077519	AA T </s>
-0.80118483	SH T </s>
-1.4118083	UH T </s>
-2.426779	<s> AH </s>
-2.5734384	T AH </s>
-1.8094927	D AH </s>
-2.2916234	Z AH </s>
-2.6611958	JH AH </s>
-2.2939994	UW AH </s>
-1.3565745	N AH </s>
-1.2387137	ER AH </s>
-2.8678758	W AH </s>
-0.97410184	IY AH </s>
-2.4366503	DH AH </s>
-2.8648996	P AH </s>
-2.0796216	S AH </s>
-2.2823818	AY AH </s>
-1.7609434	L AH </s>
-1.506892	K AH </s>
-2.2537575	M AH </s>
-2.250998	F AH </s>
-2.1765435	R AH </s>
-2.2614663	V AH </s>
-2.0233645	G AH </s>
-2.3376398	NG AH </s>
-0.87002736	Y AH </s>
-2.6415918	HH AH </s>
-1.4830328	SH AH </s>
-0.8935172	OY AH </s>
-0.84695846	ZH AH </s>
-1.1752934	AH D </s>
-1.2975215	EY D </s>
-1.1758212	IH D </s>
-1.3235042	Z D </s>
-0.6975794	JH D </s>
-1.171793	UW D </s>
-1.0219941	N D </s>
-0.9113014	ER D </s>
-0.65691173	EH D </s>
-1.4960921	IY D </s>
-1.0978153	AW D </s>
-1.1890132	DH D </s>
-0.91930777	AE D </s>
-0.7659869	AY D </s>
-0.74050057	L D </s>
-1.3569181	M D </s>
-0.5131773	AO D </s>
-0.790458	R D </s>
-0.9945494	V D </s>
-0.8586081	OW D </s>
-1.0640852	AA D </s>
-0.9835152	UH D </s>
-0.41700107	OY D </s>
-1.8579187	T EY </s>
-0.29426607	D EY </s>
-1.7438176	JH EY </s>
-1.6284428	B EY </s>
-0.72823477	W EY </s>
-2.1483715	IY EY </s>
-1.8650367	DH EY </s>
-2.2730055	P EY </s>
-1.0512049	S EY </s>
-1.6169673	AY EY </s>
-1.7471688	L EY </s>
-1.333629	K EY </s>
-2.4395483	M EY </s>
-2.2964199	F EY </s>
-2.3039744	R EY </s>
-1.0585173	G EY </s>
-0.666585	AH Z </s>
-0.4347199	D Z </s>
-0.7803823	EY Z </s>
-1.7504715	IH Z </s>
-1.017382	UW Z </s>
-0.49893314	N Z </s>
-0.17586622	B Z </s>
-0.33293727	ER Z </s>
-1.5370463	EH Z </s>
-0.5305438	IY Z </s>
-1.9622259	AW Z </s>
-0.20763524	DH Z </s>
-2.1146493	AE Z </s>
-0.53754437	AY Z </s>
-0.4158136	L Z </s>
-0.69784296	M Z </s>
-1.2398527	AO Z </s>
-0.41813666	R Z </s>
-0.9910399	V Z </s>
-0.5816332	G Z </s>
-0.7781722	OW Z </s>
-0.5748696	NG Z </s>
-2.038463	AA Z </s>
-0.57055676	OY Z </s>
-0.5538435	AH JH </s>
-0.5067024	EY JH </s>
-0.636176	IH JH </s>
-1.8907439	UW JH </s>
-1.2777474	N JH </s>
-2.214033	EH JH </s>
-1.1931478	R JH </s>
-1.5407232	T UW </s>
-1.225435	D UW </s>
-0.8965905	Z UW </s>
-1.1423976	JH UW </s>
-1.184864	N UW </s>
-1.1679134	ER UW </s>
-2.2102113	S UW </s>
-0.86333233	L UW </s>
-2.2836523	K UW </s>
-2.104137	M UW </s>
-1.8586818	F UW </s>
-1.0586953	R UW </s>
-0.9750036	Y UW </s>
-1.9229965	HH UW </s>
-0.9600056	SH UW </s>
-1.4565247	CH UW </s>
-0.8258714	AH N </s>
-0.7930132	EY N </s>
-1.5548522	IH N </s>
-0.7773045	UW N </s>
-1.2770721	ER N </s>
-1.2335314	EH N </s>
-0.9271952	IY N </s>
-0.88776684	AW N </s>
-1.3156215	AE N </s>
-0.925107	AY N </s>
-1.2073123	AO N </s>
-1.186532	R N </s>
-0.7747509	OW N </s>
-1.2704376	AA N </s>
-1.2272729	OY N </s>
-2.5672019	AH B </s>
-2.061472	UW B </s>
-2.3275316	ER B </s>
-1.3229551	AE B </s>
-2.196827	AY B </s>
-2.5408282	OW B </s>
-0.48399025	AA B </s>
-0.6540463	T ER </s>
-1.2437552	D ER </s>
-0.45194197	EY ER </s>
-1.3301033	Z ER </s>
-1.1661845	JH ER </s>
-0.49424285	N ER </s>
-0.6423352	B ER </s>
-0.7487192	ER ER </s>
-1.7257491	TH ER </s>
-2.677322	W ER </s>
-0.75896144	IY ER </s>
-0.93913215	AW ER </s>
-0.5483801	DH ER </s>
-1.1686884	P ER </s>
-0.81508064	S ER </s>
-0.5170187	AY ER </s>
-1.1357883	L ER </s>
-0.90346855	K ER </s>
-0.7967026	M ER </s>
-1.6020452	F ER </s>
-0.7019402	R ER </s>
-1.0480379	V ER </s>
-0.8470613	G ER </s>
-1.1716837	OW ER </s>
-0.33978832	NG ER </s>
-0.51244	Y ER </s>
-0.6192282	HH ER </s>
-1.4999424	SH ER </s>
-0.47157207	CH ER </s>
-1.0542526	ZH ER </s>
-2.297156	AH TH </s>
-1.3890871	EY TH </s>
-1.6970103	IH TH </s>
-0.5711537	UW TH </s>
-0.8873216	N TH </s>
-0.76716226	ER TH </s>
-0.3610189	EH TH </s>
-1.6641475	IY TH </s>
-0.7850714	AW TH </s>
-0.72957814	AE TH </s>
-0.8218093	L TH </s>
-1.3428419	K TH </s>
-1.0401839	AO TH </s>
-0.8595722	F TH </s>
-1.4536872	R TH </s>
-1.6091719	OW TH </s>
-0.8805711	AA TH </s>
-0.6024601	T IY </s>
-0.79232407	D IY </s>
-0.59037	Z IY </s>
-0.65823215	JH IY </s>
-2.2007444	UW IY </s>
-0.91041106	N IY </s>
-1.2260549	B IY </s>
-0.6490452	ER IY </s>
-1.1650767	TH IY </s>
-2.6756716	W IY </s>
-2.4043047	DH IY </s>
-1.1959848	P IY </s>
-0.79806316	S IY </s>
-1.3920252	AY IY </s>
-0.9085623	L IY </s>
-0.6549127	K IY </s>
-0.5421771	M IY </s>
-0.4169471	F IY </s>
-0.80826974	R IY </s>
-0.4763336	V IY </s>
-1.6457499	G IY </s>
-2.0131433	HH IY </s>
-2.0767212	SH IY </s>
-0.30337152	N AW </s>
-2.80272	B AW </s>
-0.9792779	W AW </s>
-2.2805662	L AW </s>
-1.1398352	K AW </s>
-2.5223546	HH AW </s>
-1.690511	IH DH </s>
-2.4767492	IY DH </s>
-1.1146114	AH P </s>
-1.1393616	EY P </s>
-1.1652156	IH P </s>
-1.4933594	UW P </s>
-2.0425117	EH P </s>
-1.0237257	IY P </s>
-1.6109978	AE P </s>
-1.5220954	AY P </s>
-0.84989196	L P </s>
-2.2548556	M P </s>
-1.5814878	R P </s>
-1.3056052	OW P </s>
-0.9783495	AA P </s>
-0.9757113	T S </s>
-0.9031853	AH S </s>
-0.8949021	EY S </s>
-1.0512495	IH S </s>
-1.871843	UW S </s>
-0.9277068	N S </s>
-1.6993388	ER S </s>
-0.62289715	TH S </s>
-0.9697168	EH S </s>
-1.4810524	IY S </s>
-0.26369727	AW S </s>
-0.7142358	P S </s>
-1.1189008	AE S </s>
-1.1400245	AY S </s>
-1.0704958	L S </s>
-0.7722581	K S </s>
-1.8341271	AO S </s>
-0.5076984	F S </s>
-1.1141608	R S </s>
-1.9579034	OW S </s>
-2.1537871	AA S </s>
-1.0064243	UH S </s>
-0.2723584	OY S </s>
-1.9695437	T AY </s>
-1.6036091	AH AY </s>
-0.9281911	D AY </s>
-1.7498674	Z AY </s>
-1.4521283	UW AY </s>
-2.5017276	N AY </s>
-1.3534082	B AY </s>
-1.9447783	W AY </s>
-1.0343665	P AY </s>
-1.466901	AY AY </s>
-1.7547157	L AY </s>
-0.94892484	K AY </s>
-2.8489192	M AY </s>
-2.5323358	F AY </s>
-1.2506967	R AY </s>
-1.1286409	G AY </s>
-1.4929904	OW AY </s>
-1.1383582	HH AY </s>
-0.60906	SH AY </s>
-0.80736244	AH L </s>
-1.0779198	EY L </s>
-1.6650884	IH L </s>
-0.8470818	UW L </s>
-1.215778	ER L </s>
-1.1168121	EH L </s>
-1.4912258	IY L </s>
-1.3202245	AY L </s>
-0.9495821	AO L </s>
-1.9047477	OW L </s>
-1.4394497	AA L </s>
-0.8517274	UH L </s>
-0.72272646	OY L </s>
-1.8507147	AH K </s>
-0.81576294	EY K </s>
-0.930676	IH K </s>
-2.755351	UW K </s>
-1.0081484	ER K </s>
-1.8540365	EH K </s>
-1.0609418	IY K </s>
-0.8014087	AE K </s>
-1.4555135	S K </s>
-1.5997933	AY K </s>
-0.97011185	L K </s>
-0.9215442	AO K </s>
-0.7604015	R K </s>
-1.2819637	OW K </s>
-1.002259	NG K </s>
-1.1476171	AA K </s>
-0.6922695	UH K </s>
-1.2650632	AH M </s>
-0.70176107	EY M </s>
-0.7154572	IH M </s>
-2.8746424	Z M </s>
-0.6398251	UW M </s>
-0.56161696	EH M </s>
-1.0688434	IY M </s>
-1.298216	AE M </s>
-0.6571235	AY M </s>
-1.5094377	L M </s>
-1.428303	R M </s>
-0.5146399	OW M </s>
-1.0279276	AA M </s>
-2.2224522	S AO </s>
-1.529634	L AO </s>
-2.607393	R AO </s>
-1.7685455	AH F </s>
-1.2070031	EY F </s>
-2.04033	IH F </s>
-1.212799	UW F </s>
-1.61342	EH F </s>
-1.2329584	IY F </s>
-1.0636467	AE F </s>
-0.880646	AY F </s>
-0.6725457	L F </s>
-2.305034	M F </s>
-0.89669895	AO F </s>
-2.1798153	AA F </s>
-0.6929176	IH R </s>
-1.3144357	UW R </s>
-1.1895533	EH R </s>
-0.44721565	IY R </s>
-1.7782719	AY R </s>
-1.1032369	AO R </s>
-1.0813537	AA R </s>
-1.690042	UH R </s>
-1.7476178	AH V </s>
-1.4424151	EY V </s>
-1.3826486	IH V </s>
-1.4353113	UW V </s>
-2.8774028	EH V </s>
-1.2073902	IY V </s>
-1.3310657	AE V </s>
-0.8053506	AY V </s>
-1.3433211	L V </s>
-1.6273373	R V </s>
-1.8150648	OW V </s>
-2.1252007	AH G </s>
-1.044293	IH G </s>
-2.267396	ER G </s>
-0.8866755	EH G </s>
-0.5429429	AE G </s>
-0.4051129	AO G </s>
-1.4291158	R G </s>
-1.6652685	AA G </s>
-1.7992957	<s> OW </s>
-1.1771047	T OW </s>
-0.50834876	D OW </s>
-0.8159499	EY OW </s>
-1.6876987	JH OW </s>
-1.1091071	N OW </s>
-1.6228198	B OW </s>
-1.6340896	ER OW </s>
-0.5741464	IY OW </s>
-2.4124706	P OW </s>
-1.4527797	S OW </s>
-1.7319572	AY OW </s>
-1.2232691	L OW </s>
-0.9838075	K OW </s>
-2.0110874	M OW </s>
-2.4274876	F OW </s>
-0.6913599	R OW </s>
-1.4580991	V OW </s>
-0.86687344	G OW </s>
-2.6773753	HH OW </s>
-1.7330835	SH OW </s>
-0.8439155	AH NG </s>
-0.6475558	IH NG </s>
-1.3651973	EH NG </s>
-1.8009737	AE NG </s>
-0.49385637	AO NG </s>
-3.8008976	T AA </s>
-2.1385384	ER AA </s>
-3.5356941	W AA </s>
-2.4465754	IY AA </s>
-2.7775438	P AA </s>
-1.4974825	L AA </s>
-1.5670384	K AA </s>
-2.4933429	M AA </s>
-1.888649	R AA </s>
-2.4964309	HH AA </s>
-2.4380138	AH SH </s>
-0.4798897	IH SH </s>
-0.7511358	EH SH </s>
-1.1257423	AE SH </s>
-1.8330696	AA SH </s>
-1.4430039	UH SH </s>
-0.88487846	T OY </s>
-1.3590885	JH OY </s>
-1.4616681	N OY </s>
-0.81745416	B OY </s>
-1.2597562	L OY </s>
-1.5758033	R OY </s>
-0.88164437	AH CH </s>
-1.5338551	EY CH </s>
-0.67248017	IH CH </s>
-0.42750263	N CH </s>
-0.88791627	ER CH </s>
-1.2348663	IY CH </s>
-0.2092442	AW CH </s>
-1.2663195	AE CH </s>
-1.1048502	L CH </s>
-1.7352881	R CH </s>
-1.3156677	OW CH </s>
-0.77715087	AA CH </s>
-0.36115777	AA ZH </s>
-1.481657	AH T T
-1.7260883	EY T T
-1.4120036	IH T T
-2.7540095	UW T T
-0.7555918	N T T
-2.1790721	ER T T
-1.2195004	EH T T
-1.7572602	IY T T
-1.1796824	AW T T
-1.3827503	P T T
-1.2977116	AE T T
-1.709074	S T T
-1.8287745	AY T T
-1.419418	L T T
-1.6516817	K T T
-1.3572897	AO T T
-2.0327692	F T T
-2.1367204	R T T
-2.5534136	OW T T
-1.24625	AA T T
-2.0655618	SH T T
-1.6474669	UH T T
-1.2178645	CH T T
-1.5151281	<s> AH T
-1.8977288	T AH T
-1.3792391	AH AH T
-1.7419763	D AH T
-0.9462635	EY AH T
-1.4208604	Z AH T
-1.4095576	JH AH T
-1.7218778	UW AH T
-1.1012924	N AH T
-0.45328394	B AH T
-1.4916856	ER AH T
-2.0836399	TH AH T
-0.32970896	W AH T
-1.1853288	IY AH T
-1.1782633	DH AH T
-0.8009974	P AH T
-1.7939863	S AH T
-0.82597244	AY AH T
-1.1830912	L AH T
-1.22196	K AH T
-1.7045308	M AH T
-1.4888954	AO AH T
-1.782898	F AH T
-1.4966841	R AH T
-1.4568497	V AH T
-2.1504118	G AH T
-0.7917959	OW AH T
-1.6466223	NG AH T
-0.882401	AA AH T
-2.0653338	Y AH T
-2.3300474	HH AH T
-1.4521377	SH AH T
-1.3676982	OY AH T
-2.1372085	CH AH T
-1.9981468	AH D T
-1.3568474	EY D T
-0.72535306	IH D T
-0.6313113	Z D T
-1.3935096	JH D T
-2.3649814	UW D T
-1.3888716	N D T
-1.8213553	ER D T
-1.7045339	EH D T
-1.3066701	IY D T
-1.899202	AW D T
-1.1196362	AE D T
-1.2063633	AY D T
-1.3823338	L D T
-1.6726677	M D T
-1.4490451	AO D T
-1.3335166	R D T
-1.3046687	V D T
-1.8299549	OW D T
-1.616092	NG D T
-2.5038865	AA D T
-1.4159068	UH D T
-0.80409604	<s> EY T
-0.8083897	T EY T
-0.4953153	AH EY T
-1.1384016	D EY T
-0.11764132	EY EY T
-0.52052796	Z EY T
-1.4762577	JH EY T
-0.43439287	UW EY T
-1.0483863	N EY T
-1.5869462	B EY T
-0.25302148	ER EY T
-0.7913086	TH EY T
-0.59191906	W EY T
-0.20703106	IY EY T
-0.26050755	AW EY T
-1.3616896	DH EY T
-1.5115669	P EY T
-1.6257062	S EY T
-0.09017638	AY EY T
-0.5909667	L EY T
-1.0056901	K EY T
-1.1780249	M EY T
-1.8338953	F EY T
-0.87931514	R EY T
-0.57730275	V EY T
-1.5097933	G EY T
-0.9410582	OW EY T
-0.4000644	HH EY T
-0.5408896	<s> IH T
-1.2667814	T IH T
-1.9478531	AH IH T
-1.2465214	D IH T
-1.4100435	EY IH T
-0.7737	Z IH T
-2.0029957	JH IH T
-0.7231087	UW IH T
-1.2414471	N IH T
-1.1601716	B IH T
-0.7208696	ER IH T
-3.00461	TH IH T
-1.7056943	W IH T
-1.7910707	IY IH T
-1.2052886	AW IH T
-2.611992	DH IH T
-0.86562324	P IH T
-0.73948497	S IH T
-1.136952	AY IH T
-0.99768054	L IH T
-1.1725775	K IH T
-1.5207238	M IH T
-0.6032565	AO IH T
-1.4349827	F IH T
-0.91473913	R IH T
-1.2986273	V IH T
-0.7724673	G IH T
-1.4134192	OW IH T
-1.0770948	NG IH T
-1.4255965	AA IH T
-1.5549873	HH IH T
-1.9501672	SH IH T
-1.7528348	CH IH T
-0.97843444	AH Z T
-1.4566898	D Z T
-1.3088131	EY Z T
-1.3468707	IH Z T
-2.0204017	UW Z T
-1.3716639	N Z T
-1.5748014	ER Z T
-1.6174986	IY Z T
-1.6851381	DH Z T
-1.1262606	AE Z T
-1.2105477	AY Z T
-1.8387674	L Z T
-1.3756983	M Z T
-1.9235681	R Z T
-1.5082734	V Z T
-1.9070157	G Z T
-1.1215054	OW Z T
-0.69407564	NG Z T
-1.2374535	AA Z T
-1.8336354	OY Z T
-1.822544	AH JH T
-2.069685	EY JH T
-2.0543582	IH JH T
-2.4918463	N JH T
-0.4702235	EH JH T
-1.1804172	T UW T
-1.677235	D UW T
-1.3376462	N UW T
-0.8372406	B UW T
-1.187415	ER UW T
-2.0915287	P UW T
-0.94350636	S UW T
-0.93363	L UW T
-1.9671323	K UW T
-1.3434739	R UW T
-1.0998663	G UW T
-0.9642855	Y UW T
-1.207259	HH UW T
-0.71904093	SH UW T
-0.9068766	AH N T
-1.2730829	EY N T
-1.126041	IH N T
-2.6903343	UW N T
-1.4403685	ER N T
-0.67732126	EH N T
-1.656612	IY N T
-0.69140834	AW N T
-0.8436061	AE N T
-1.5123521	AY N T
-0.1360709	AO N T
-2.4104433	R N T
-0.8682997	OW N T
-0.31519493	AA N T
-0.34621227	OY N T
-2.6338618	ER B T
-1.9578474	AE B T
-2.12647	AA B T
-1.6407522	T ER T
-1.2480807	D ER T
-1.0143002	Z ER T
-2.5007243	JH ER T
-2.1218681	N ER T
-1.4768631	B ER T
-0.6158843	TH ER T
-1.5697528	W ER T
-0.9196198	IY ER T
-1.5453606	AW ER T
-1.3895576	DH ER T
-1.4786857	P ER T
-1.0022966	S ER T
-1.8278583	AY ER T
-1.598832	L ER T
-1.1557558	K ER T
-2.0832963	M ER T
-1.7501853	F ER T
-1.493351	V ER T
-1.790407	G ER T
-1.1743447	HH ER T
-0.06496595	SH ER T
-2.2003863	CH ER T
-1.0763159	ZH ER T
-1.7865118	UW TH T
-1.801805	ER TH T
-1.5229414	EH TH T
-2.7591045	IY TH T
-1.3916099	AE TH T
-1.2778723	OW TH T
-2.2160387	<s> EH T
-2.0551326	D EH T
-2.1537488	Z EH T
-1.8677144	JH EH T
-1.5091013	N EH T
-0.53133494	B EH T
-1.1045176	ER EH T
-1.7813284	W EH T
-1.11882	IY EH T
-2.0869975	P EH T
-1.6181469	S EH T
-0.32993156	L EH T
-2.0832748	K EH T
-1.2625326	M EH T
-2.25528	R EH T
-0.22519538	G EH T
-0.66259336	Y EH T
-0.55782664	<s> IY T
-1.4110342	T IY T
-1.4720751	AH IY T
-1.4013455	D IY T
-0.2423344	EY IY T
-0.66124535	Z IY T
-0.11468266	UW IY T
-1.5887288	N IY T
-1.0833762	B IY T
-1.2044086	ER IY T
-1.2567551	W IY T
-0.25308543	IY IY T
-2.3878787	DH IY T
-1.3990414	P IY T
-1.2615105	S IY T
-0.30348882	AY IY T
-1.2307848	L IY T
-1.1168051	K IY T
-0.8717084	M IY T
-1.0015965	F IY T
-1.4786358	R IY T
-1.2075268	V IY T
-1.6295625	G IY T
-1.162829	OW IY T
-1.4361444	HH IY T
-1.3257453	SH IY T
-0.28692734	OY IY T
-1.1468159	<s> AW T
-0.3869613	T AW T
-0.4185375	AH AW T
-0.66375417	D AW T
-0.16446988	EY AW T
-0.30954868	Z AW T
-0.5524111	UW AW T
-1.2375647	N AW T
-0.006001679	B AW T
-0.86538243	ER AW T
-0.5914424	TH AW T
-0.84893125	IY AW T
-1.4480141	P AW T
-1.5579844	S AW T
-1.1918908	L AW T
-0.64996105	K AW T
-0.70485467	M AW T
-1.9336172	F AW T
-1.4521347	R AW T
-1.0781636	V AW T
-0.3799367	G AW T
-0.017460428	OW AW T
-0.09265707	NG AW T
-1.0156403	HH AW T
-0.08697851	SH AW T
-0.23410621	CH AW T
-1.0840759	IH DH T
-1.3543597	AH P T
-0.926513	EY P T
-0.88475686	IH P T
-2.4947648	UW P T
-0.12278038	EH P T
-2.0499492	IY P T
-1.3507407	AE P T
-1.2599049	AY P T
-0.8082622	L P T
-1.2022142	M P T
-0.78293645	AA P T
-0.82024795	<s> AE T
-0.851187	T AE T
-1.0268544	AH AE T
-0.6183101	D AE T
-0.47318488	EY AE T
-0.7745005	Z AE T
-2.4035118	JH AE T
-1.2009187	UW AE T
-1.0191767	N AE T
-1.0163634	B AE T
-0.65861547	ER AE T
-1.5848278	TH AE T
-0.67315745	IY AE T
-0.08484314	DH AE T
-1.0753351	P AE T
-0.697617	S AE T
-2.0316713	AY AE T
-1.2862556	L AE T
-0.9244476	K AE T
-0.8359495	M AE T
-0.4285707	AO AE T
-0.64916945	F AE T
-1.3726255	R AE T
-1.2964371	V AE T
-1.9511819	G AE T
-0.78561753	OW AE T
-0.2416625	NG AE T
-0.2688001	AA AE T
-1.8244971	HH AE T
-0.5523016	SH AE T
-0.5654278	CH AE T
-0.8994231	<s> S T
-0.92536175	T S T
-0.47995007	AH S T
-0.78764033	D S T
-0.64723325	EY S T
-0.66727483	IH S T
-0.68073076	Z S T
-1.160356	JH S T
-0.6556077	UW S T
-0.8795924	N S T
-0.902964	B S T
-0.3281949	ER S T
-1.3749008	TH S T
-0.29556182	EH S T
-0.6187573	IY S T
-1.362633	AW S T
-1.044157	DH S T
-0.7381233	P S T
-0.39265093	AE S T
-0.60322183	S S T
-0.84849334	AY S T
-0.7859214	L S T
-0.82080984	K S T
-0.55748796	M S T
-0.09334796	AO S T
-1.5695443	F S T
-0.8129051	R S T
-0.8488579	V S T
-1.203045	G S T
-0.21316975	OW S T
-0.7896712	NG S T
-0.19199745	AA S T
-0.83972573	SH S T
-1.0228612	OY S T
-0.9595692	CH S T
-1.5587294	<s> AY T
-1.636967	T AY T
-1.7598442	D AY T
-1.1298466	EY AY T
-1.8277228	Z AY T
-1.5379971	UW AY T
-0.40281773	N AY T
-1.0207884	B AY T
-0.8899857	W AY T
-1.6060151	IY AY T
-1.196867	S AY T
-1.4508394	AY AY T
-1.4084387	L AY T
-1.4611537	K AY T
-1.5780722	M AY T
-1.1133777	F AY T
-0.4225285	R AY T
-1.0725579	V AY T
-1.6555219	OW AY T
-1.2212099	NG AY T
-1.7628481	HH AY T
-1.2942692	AH L T
-2.6120667	EY L T
-1.2132877	IH L T
-2.0279515	UW L T
-2.6640522	ER L T
-1.2623771	EH L T
-2.6731298	IY L T
-2.5241807	AY L T
-1.226739	AO L T
-2.2036512	OW L T
-1.9208562	OY L T
-2.118782	AH K T
-1.5621349	EY K T
-1.1360198	IH K T
-1.2086159	ER K T
-0.60740566	EH K T
-1.6288329	IY K T
-0.5223961	AE K T
-1.0382159	S K T
-1.0041848	AY K T
-2.0440784	L K T
-0.47602588	AO K T
-1.4357336	R K T
-1.5594034	OW K T
-1.2121413	NG K T
-0.55611825	AA K T
-1.1741158	UH K T
-1.3937104	AH M T
-1.1647706	EY M T
-1.2641147	IH M T
-2.3107283	UW M T
-1.5472444	EH M T
-2.0190446	IY M T
-1.8556391	AE M T
-1.3409733	AY M T
-2.561872	L M T
-2.4741764	R M T
-1.5779479	OW M T
-1.3892548	AA M T
-1.2856469	T AO T
-0.89312696	D AO T
-2.2698364	Z AO T
-1.7604418	UW AO T
-1.6796763	N AO T
-2.6382372	B AO T
-0.033754032	TH AO T
-0.5948588	W AO T
-2.2429218	IY AO T
-1.2802455	S AO T
-2.1568408	F AO T
-0.9053721	R AO T
-2.0312486	AH F T
-1.9748698	EY F T
-0.8338515	IH F T
-0.095556535	EH F T
-2.3942294	IY F T
-0.28120986	AE F T
-2.0412166	AY F T
-2.3864963	L F T
-1.3294744	AO F T
-1.753863	AA F T
-2.1117494	IH R T
-1.9441844	EH R T
-1.3741599	IY R T
-2.3117034	AE R T
-1.037704	AO R T
-0.84317976	AA R T
-1.794107	UH R T
-1.4154809	AH V T
-1.4499578	EY V T
-1.543011	IH V T
-2.291635	UW V T
-1.9831915	ER V T
-1.6218506	IY V T
-0.8590257	AE V T
-1.9758984	AY V T
-2.1342084	IH G T
-2.230235	EH G T
-1.6975209	AO G T
-1.6599685	T OW T
-1.6790084	D OW T
-1.3119999	N OW T
-1.2744448	B OW T
-1.5329388	IY OW T
-2.0729578	DH OW T
-1.4840317	S OW T
-1.9262133	AY OW T
-1.872199	L OW T
-0.9867071	K OW T
-1.2432737	M OW T
-0.9873955	F OW T
-0.9175324	R OW T
-0.339907	V OW T
-0.7046165	G OW T
-0.38108188	Y OW T
-1.0452479	HH OW T
-1.9049606	SH OW T
-2.3066077	AH NG T
-0.9225117	IH NG T
-2.7909346	AE NG T
-1.198786	AO NG T
-2.1550152	<s> AA T
-3.6241305	T AA T
-2.4987428	D AA T
-2.0372698	EY AA T
-0.13001795	N AA T
-0.60899746	B AA T
-1.3068213	ER AA T
-3.363731	W AA T
-1.9509746	P AA T
-2.3133595	S AA T
-1.8974788	AY AA T
-0.41348588	L AA T
-1.120781	K AA T
-2.2440383	M AA T
-1.5252016	R AA T
-1.7958853	V AA T
-0.26783752	G AA T
-2.0496695	NG AA T
-0.6835829	HH AA T
-0.45225725	SH AA T
-2.4717023	AH SH T
-1.0687616	IH SH T
-1.2127242	AE SH T
-0.5692427	AA SH T
-0.47942412	UH SH T
-0.14802565	P UH T
-0.27886447	F UH T
-1.5745887	T OY T
-2.0161276	B OY T
-1.3213577	L OY T
-1.4979255	R OY T
-1.3680657	AH CH T
-1.657754	IH CH T
-1.5518818	N CH T
-1.3075327	ER CH T
-1.1191652	EH CH T
-1.492847	IY CH T
-1.1854695	AE CH T
-1.9524336	R CH T
-0.5924486	AA CH T
-1.677403	<s> T AH
-1.5223942	T T AH
-1.0747144	AH T AH
-1.524748	D T AH
-0.9614331	EY T AH
-0.90539104	IH T AH
-1.4591569	Z T AH
-0.18725495	JH T AH
-0.60286266	UW T AH
-1.0817466	N T AH
-0.85326016	ER T AH
-1.2773176	TH T AH
-1.0637681	EH T AH
-1.0264263	IY T AH
-0.89701086	AW T AH
-1.1366545	P T AH
-1.1964647	AE T AH
-0.83634263	S T AH
-1.1638786	AY T AH
-1.0074047	L T AH
-0.9880192	K T AH
-0.968772	M T AH
-1.2336489	AO T AH
-1.8729979	F T AH
-0.6985971	R T AH
-1.2566739	V T AH
-1.2185465	G T AH
-0.9935123	OW T AH
-1.2765632	NG T AH
-0.63611263	AA T AH
-1.4969063	SH T AH
-1.1689776	UH T AH
-0.96960616	CH T AH
-3.510139	T AH AH
-2.7429955	D AH AH
-2.7169278	N AH AH
-2.5504088	ER AH AH
-3.3393219	W AH AH
-2.0177271	IY AH AH
-1.8103158	DH AH AH
-2.3642032	AY AH AH
-3.190487	L AH AH
-3.2264068	K AH AH
-3.290692	M AH AH
-2.9568093	R AH AH
-2.8063653	V AH AH
-2.5285974	G AH AH
-2.3057067	OW AH AH
-2.4088266	Y AH AH
-2.6472156	SH AH AH
-1.7784886	ZH AH AH
-0.8709181	<s> D AH
-1.0314052	T D AH
-0.8091091	AH D AH
-1.5315081	D D AH
-0.6907863	EY D AH
-1.4050306	IH D AH
-1.0299913	Z D AH
-1.4817256	JH D AH
-0.6755944	UW D AH
-1.071633	N D AH
-1.2399538	ER D AH
-1.6145226	TH D AH
-0.9440849	EH D AH
-0.85517454	IY D AH
-0.5583813	AW D AH
-1.1708792	P D AH
-0.8511302	AE D AH
-1.1224258	S D AH
-1.2566543	AY D AH
-1.2928863	L D AH
-0.83654827	K D AH
-0.8931434	M D AH
-1.5972645	AO D AH
-0.92319727	F D AH
-0.8963355	R D AH
-0.9092665	V D AH
-1.4701259	G D AH
-0.9587401	OW D AH
-0.5154114	NG D AH
-1.1679425	AA D AH
-1.4379652	UH D AH
-0.77887225	CH D AH
-1.8711343	T EY AH
-1.7949319	D EY AH
-2.3466997	B EY AH
-1.9202976	W EY AH
-1.7710801	DH EY AH
-1.5652468	P EY AH
-1.8116752	S EY AH
-2.2322323	L EY AH
-2.63872	K EY AH
-2.7343664	R EY AH
-2.5444715	G EY AH
-1.1347684	AH Z AH
-1.0153141	D Z AH
-1.1589816	EY Z AH
-0.9176862	IH Z AH
-0.7165293	Z Z AH
-1.429891	UW Z AH
-1.2283291	N Z AH
-1.4472219	B Z AH
-1.1710926	ER Z AH
-0.44260406	EH Z AH
-1.1115791	IY Z AH
-0.033348817	AW Z AH
-1.8198196	DH Z AH
-0.81452	AE Z AH
-1.1426017	AY Z AH
-1.1463848	L Z AH
-0.4106014	K Z AH
-1.1387154	M Z AH
-0.5750116	AO Z AH
-0.8739643	R Z AH
-1.1515048	V Z AH
-1.6086512	G Z AH
-1.177779	OW Z AH
-0.99571943	NG Z AH
-0.9537412	AA Z AH
-0.8627633	OY Z AH
-0.4874523	<s> JH AH
-0.5877228	T JH AH
-0.67984605	AH JH AH
-1.3398006	D JH AH
-0.53305686	EY JH AH
-0.3718697	IH JH AH
-0.57718563	Z JH AH
-0.6692324	JH JH AH
-0.40225565	UW JH AH
-0.5859226	N JH AH
-0.67621017	ER JH AH
-0.24074681	EH JH AH
-0.16234533	IY JH AH
-0.6179714	DH JH AH
-0.25308767	P JH AH
-0.48182464	AE JH AH
-0.33924478	S JH AH
-0.2629618	AY JH AH
-0.957323	L JH AH
-1.0834181	K JH AH
-0.46000963	M JH AH
-0.37628224	R JH AH
-0.25124836	V JH AH
-0.1419317	G JH AH
-0.8450924	OW JH AH
-0.8354666	SH JH AH
-0.5364993	CH JH AH
-1.6003678	T UW AH
-2.382655	D UW AH
-1.5347555	JH UW AH
-1.6699404	N UW AH
-1.187415	ER UW AH
-1.1061891	W UW AH
-0.85847926	S UW AH
-1.3667091	L UW AH
-1.3434739	R UW AH
-1.6063561	Y UW AH
-2.2685468	HH UW AH
-0.58592886	SH UW AH
-0.59322	CH UW AH
-0.2695033	ZH UW AH
-1.0735872	<s> N AH
-1.3010566	T N AH
-1.3723905	AH N AH
-1.226881	D N AH
-1.7621839	EY N AH
-1.0807842	IH N AH
-1.2531437	Z N AH
-1.0932064	UW N AH
-0.79436195	N N AH
-1.3283672	ER N AH
-1.5111574	EH N AH
-1.0843456	IY N AH
-1.6602657	AW N AH
-1.0572664	AE N AH
-1.3683796	S N AH
-0.94616854	AY N AH
-1.3952969	L N AH
-1.0657139	K N AH
-1.9587089	M N AH
-1.814395	AO N AH
-1.6157113	R N AH
-1.5760738	V N AH
-1.0274677	G N AH
-1.3543593	OW N AH
-1.3655603	NG N AH
-1.3088351	AA N AH
-1.1044612	SH N AH
-1.6672868	OY N AH
-1.3086859	<s> B AH
-1.081173	T B AH
-0.8580146	AH B AH
-1.1092625	D B AH
-0.41053888	EY B AH
-1.1534952	Z B AH
-1.0345173	JH B AH
-1.6493944	UW B AH
-1.0419449	N B AH
-0.9940738	ER B AH
-0.9586855	EH B AH
-0.8329493	IY B AH
-1.277454	AW B AH
-0.99182534	P B AH
-0.45834383	AE B AH
-0.9955791	S B AH
-0.96132976	AY B AH
-1.1006919	L B AH
-0.88420343	K B AH
-0.9717742	M B AH
-1.115058	F B AH
-1.2716502	R B AH
-1.0860804	V B AH
-1.4462788	G B AH
-1.0670953	OW B AH
-0.63511753	NG B AH
-0.8919796	AA B AH
-0.45355782	SH B AH
-0.7613882	CH B AH
-1.3693388	T ER AH
-1.4607233	D ER AH
-1.4803342	EY ER AH
-1.3430961	Z ER AH
-0.9700192	JH ER AH
-0.7794428	N ER AH
-1.2466246	B ER AH
-1.6331851	TH ER AH
-1.6534929	W ER AH
-1.7363634	IY ER AH
-1.6384232	AW ER AH
-1.4549677	DH ER AH
-1.7368438	P ER AH
-1.6018661	S ER AH
-1.9589446	AY ER AH
-1.4576944	L ER AH
-0.93885684	K ER AH
-0.70159286	M ER AH
-0.8353146	F ER AH
-0.6071284	R ER AH
-1.6075484	V ER AH
-1.6574887	G ER AH
-1.6114331	NG ER AH
-1.6122766	Y ER AH
-1.4417423	HH ER AH
-1.0478671	CH ER AH
-2.1556902	AH TH AH
-2.1443577	D TH AH
-1.8081255	IH TH AH
-1.9159874	Z TH AH
-1.80723	UW TH AH
-1.236344	N TH AH
-1.8897715	ER TH AH
-0.81166965	EH TH AH
-2.2910185	IY TH AH
-0.4884567	AW TH AH
-0.9350788	P TH AH
-0.59945613	AE TH AH
-0.78971976	K TH AH
-1.0592923	F TH AH
-0.79657173	R TH AH
-1.0019538	OW TH AH
-0.9335122	NG TH AH
-0.87456584	AA TH AH
-0.52686983	<s> W AH
-0.93449736	T W AH
-1.0928917	AH W AH
-0.7474165	D W AH
-1.2206875	EY W AH
-0.7019589	Z W AH
-1.2518013	JH W AH
-1.1887454	UW W AH
-0.59624887	N W AH
-1.0972153	B W AH
-0.73734695	ER W AH
-0.7675401	IY W AH
-0.33449644	DH W AH
-1.3820851	P W AH
-1.2581517	S W AH
-1.7669418	AY W AH
-1.3424509	L W AH
-1.1970104	K W AH
-1.0742234	M W AH
-0.61191875	AO W AH
-1.0931478	R W AH
-0.73443055	V W AH
-0.037020393	G W AH
-0.26644406	OW W AH
-1.0809562	NG W AH
-0.6611386	AA W AH
-1.1852789	SH W AH
-0.85414064	CH W AH
-1.3625158	T IY AH
-0.6790289	D IY AH
-1.0744717	Z IY AH
-1.5135001	JH IY AH
-1.3650619	N IY AH
-0.8072402	B IY AH
-1.1319911	ER IY AH
-0.93471223	TH IY AH
-2.0612738	W IY AH
-1.5007044	P IY AH
-1.539261	S IY AH
-1.3576537	L IY AH
-1.7632488	K IY AH
-1.1413802	M IY AH
-1.6563152	F IY AH
-1.0512434	R IY AH
-1.016113	V IY AH
-1.657606	G IY AH
-2.086379	HH IY AH
-1.8615187	SH IY AH
-0.7846564	T AW AH
-1.4338424	N AW AH
-1.0065546	W AW AH
-2.0012095	HH AW AH
-0.33459306	<s> DH AH
-0.25426117	T DH AH
-1.840078	AH DH AH
-0.23646185	D DH AH
-0.31883708	EY DH AH
-0.84148353	IH DH AH
-0.19969967	Z DH AH
-0.35892782	JH DH AH
-0.24495554	UW DH AH
-0.10919247	N DH AH
-0.7027289	B DH AH
-0.49930677	ER DH AH
-0.18126382	TH DH AH
-0.42315045	IY DH AH
-0.44158012	AW DH AH
-0.27768224	DH DH AH
-0.3439589	P DH AH
-0.19705087	S DH AH
-0.1529355	AY DH AH
-0.27809432	L DH AH
-0.40774962	K DH AH
-0.19392769	M DH AH
-0.11436315	AO DH AH
-0.17002869	F DH AH
-0.36164024	R DH AH
-0.16133846	V DH AH
-0.7300674	OW DH AH
-0.2500189	NG DH AH
-2.1721869	AA DH AH
-0.2694915	SH DH AH
-0.61744386	OY DH AH
-0.29155162	CH DH AH
-1.6622467	<s> P AH
-1.300129	T P AH
-0.989954	AH P AH
-1.3191166	D P AH
-1.5239934	EY P AH
-1.0787035	IH P AH
-1.279021	Z P AH
-0.95058256	UW P AH
-1.6952517	N P AH
-0.9782398	ER P AH
-1.1518424	TH P AH
-0.98835593	EH P AH
-0.47141135	IY P AH
-1.1302373	DH P AH
-0.115825966	AE P AH
-2.0136788	S P AH
-1.2647551	AY P AH
-1.1946738	L P AH
-1.3057431	K P AH
-0.78033864	M P AH
-0.7022433	AO P AH
-1.0891224	R P AH
-1.6959566	V P AH
-1.0533555	G P AH
-0.19391817	OW P AH
-1.0578393	NG P AH
-1.2506582	AA P AH
-1.3525807	SH P AH
-0.7393004	<s> S AH
-0.9402982	T S AH
-1.1734889	AH S AH
-0.78764033	D S AH
-1.1305195	EY S AH
-1.1990114	IH S AH
-0.9796189	Z S AH
-1.4726073	JH S AH
-1.1278884	UW S AH
-0.7818665	N S AH
-0.43678358	B S AH
-1.0736477	ER S AH
-0.8471637	TH S AH
-1.1736686	EH S AH
-1.0828509	IY S AH
-1.1846497	AW S AH
-0.57245207	DH S AH
-1.1732006	P S AH
-1.015562	AE S AH
-1.0592635	S S AH
-0.9774716	AY S AH
-1.3450845	L S AH
-1.0102586	K S AH
-1.3219588	M S AH
-1.4209964	AO S AH
-0.7358743	F S AH
-0.79139316	R S AH
-0.748381	V S AH
-1.5279086	G S AH
-1.3756044	OW S AH
-0.5965141	NG S AH
-0.8912437	AA S AH
-1.5749345	SH S AH
-1.0228612	OY S AH
-1.2431734	CH S AH
-2.0844612	<s> AY AH
-2.2789903	T AY AH
-1.5934833	AH AY AH
-1.26645	D AY AH
-1.7406092	Z AY AH
-0.771175	JH AY AH
-2.3556223	N AY AH
-0.94520557	B AY AH
-1.9627013	ER AY AH
-1.1903129	TH AY AH
-1.3927647	W AY AH
-1.7385393	P AY AH
-1.022665	S AY AH
-1.9685879	L AY AH
-2.0724213	K AY AH
-1.6016998	M AY AH
-1.9116385	R AY AH
-0.6336359	V AY AH
-1.2277362	NG AY AH
-1.0505943	HH AY AH
-1.3892696	<s> L AH
-1.334238	T L AH
-1.1641251	AH L AH
-1.3566242	D L AH
-1.3326751	EY L AH
-1.1266354	IH L AH
-1.0420406	Z L AH
-1.3491212	UW L AH
-0.97495025	N L AH
-0.6095757	B L AH
-1.2849692	ER L AH
-1.4358785	TH L AH
-0.8331666	EH L AH
-1.2436467	IY L AH
-1.7103541	AW L AH
-1.8725337	P L AH
-0.6544353	AE L AH
-1.4878267	S L AH
-0.9038742	AY L AH
-1.4794841	L L AH
-1.2020497	K L AH
-1.2282736	M L AH
-1.3681259	AO L AH
-1.7732036	F L AH
-1.017346	R L AH
-1.0323043	V L AH
-1.014282	G L AH
-1.1982718	OW L AH
-0.9009205	NG L AH
-0.4614455	AA L AH
-1.4979157	SH L AH
-0.6731799	UH L AH
-0.70772094	OY L AH
-0.7116039	<s> K AH
-0.51492155	T K AH
-0.50426453	AH K AH
-0.7178528	D K AH
-0.77476716	EY K AH
-0.7595306	IH K AH
-0.69832635	Z K AH
-0.41609538	JH K AH
-0.62998146	UW K AH
-0.7553415	N K AH
-0.4495347	B K AH
-1.0266695	ER K AH
-1.1809871	TH K AH
-0.9216653	EH K AH
-0.96361387	IY K AH
-0.97940266	AW K AH
-0.48012176	DH K AH
-1.0840771	P K AH
-1.4562783	AE K AH
-0.9575631	S K AH
-1.0856725	AY K AH
-0.3882937	L K AH
-0.7528905	K K AH
-0.7096888	M K AH
-1.219746	AO K AH
-0.83049256	F K AH
-0.71512336	R K AH
-0.84341097	V K AH
-0.5116015	G K AH
-0.53268504	OW K AH
-0.7431433	NG K AH
-0.73250234	AA K AH
-0.69450784	SH K AH
-1.4700136	UH K AH
-0.4519469	CH K AH
-1.4353454	<s> M AH
-0.9497769	T M AH
-1.1177537	AH M AH
-1.327231	D M AH
-0.83887434	EY M AH
-1.0539585	IH M AH
-0.8157158	Z M AH
-0.7974309	JH M AH
-0.95922697	UW M AH
-0.8590969	N M AH
-0.18705955	ER M AH
-0.8810403	TH M AH
-1.3174582	EH M AH
-0.79206204	IY M AH
-0.5333935	AW M AH
-0.917414	P M AH
-0.82209545	AE M AH
-0.8706449	S M AH
-0.8777786	AY M AH
-1.113441	L M AH
-1.217232	K M AH
-0.92281353	M M AH
-1.1067283	AO M AH
-0.5367263	F M AH
-0.7774968	R M AH
-0.9861226	V M AH
-0.7374727	OW M AH
-0.8433401	NG M AH
-1.1551092	AA M AH
-0.71249217	SH M AH
-0.06531764	UH M AH
-0.5447811	OY M AH
-0.9749758	CH M AH
-0.14766122	ZH M AH
-1.1817259	S AO AH
-2.4073508	L AO AH
-2.381218	R AO AH
-2.0843027	<s> F AH
-1.7293857	T F AH
-0.63995415	AH F AH
-1.3483655	D F AH
-1.7703147	EY F AH
-0.9290047	IH F AH
-1.4690509	Z F AH
-1.5899113	UW F AH
-2.0528593	N F AH
-1.1620282	ER F AH
-1.2481477	TH F AH
-1.8073792	EH F AH
-1.5173274	IY F AH
-1.5040355	AE F AH
-0.9483683	S F AH
-1.6198112	AY F AH
-1.1354021	L F AH
-0.67394215	K F AH
-1.6138597	M F AH
-0.73633504	AO F AH
-1.154957	R F AH
-0.9457118	V F AH
-1.0146163	OW F AH
-2.0566864	NG F AH
-1.6410433	AA F AH
-1.5851728	CH F AH
-0.8536961	<s> R AH
-1.0648572	T R AH
-1.4815731	AH R AH
-0.4064373	D R AH
-1.3396701	EY R AH
-1.2443256	IH R AH
-1.2215314	Z R AH
-1.1107894	UW R AH
-0.79160434	N R AH
-0.61852753	B R AH
-1.3325592	ER R AH
-2.5611877	TH R AH
-0.9126493	EH R AH
-1.1801496	IY R AH
-0.78567505	P R AH
-0.05013082	AE R AH
-1.3705204	S R AH
-1.0652583	AY R AH
-1.6746705	L R AH
-1.1820581	K R AH
-0.96717423	M R AH
-1.1855853	AO R AH
-0.50788397	F R AH
-1.3473542	R R AH
-0.9419655	V R AH
-1.3971055	G R AH
-0.8451084	OW R AH
-1.3836762	NG R AH
-1.4471065	AA R AH
-0.4681391	UH R AH
-0.5520712	OY R AH
-1.2307796	CH R AH
-1.8028123	<s> V AH
-1.4346266	AH V AH
-1.6493583	D V AH
-1.3723881	EY V AH
-1.0995834	IH V AH
-1.7460823	UW V AH
-1.4290068	N V AH
-0.8324233	ER V AH
-0.80560595	EH V AH
-1.5024748	IY V AH
-0.6585418	AE V AH
-1.3275144	AY V AH
-1.7392166	L V AH
-1.3169209	K V AH
-1.5706842	R V AH
-1.4891644	OW V AH
-0.1307381	AA V AH
-2.3132029	<s> G AH
-1.5206969	T G AH
-1.1806636	AH G AH
-1.5927907	D G AH
-1.4246731	EY G AH
-1.2082027	IH G AH
-1.6284821	Z G AH
-1.6195608	UW G AH
-1.6149857	N G AH
-1.9766383	ER G AH
-1.1055974	EH G AH
-1.1107557	IY G AH
-0.45746657	AE G AH
-1.4578294	S G AH
-2.2955983	AY G AH
-1.291745	K G AH
-1.6526076	AO G AH
-1.1320966	R G AH
-0.797693	G G AH
-1.352103	OW G AH
-1.3638464	NG G AH
-0.9810312	AA G AH
-0.8529409	SH G AH
-1.9073863	<s> OW AH
-2.1831508	T OW AH
-1.4823279	UW OW AH
-1.5502452	N OW AH
-2.297729	B OW AH
-1.4889038	IY OW AH
-0.64593905	P OW AH
-1.7314667	S OW AH
-1.9565016	L OW AH
-1.8072034	K OW AH
-1.7371957	R OW AH
-1.5325727	G OW AH
-1.675726	Y OW AH
-1.4805179	AH NG AH
-1.1705555	IH NG AH
-2.337532	AE NG AH
-1.4637552	AO NG AH
-0.4994838	OY NG AH
-2.702043	<s> AA AH
-2.1621938	L AA AH
-3.1385527	K AA AH
-2.2867672	SH AA AH
-2.550051	<s> Y AH
-2.521254	T Y AH
-1.537279	AH Y AH
-2.3711793	D Y AH
-1.1652576	Z Y AH
-0.8171927	N Y AH
-1.4425464	B Y AH
-1.6401068	ER Y AH
-2.0293217	IY Y AH
-1.8444809	DH Y AH
-0.45573863	P Y AH
-1.6121385	S Y AH
-1.5453253	AY Y AH
-0.2783747	L Y AH
-0.85140085	K Y AH
-1.180236	M Y AH
-2.3612652	F Y AH
-2.4005675	R Y AH
-1.6706012	G Y AH
-1.5590944	NG Y AH
-1.3070567	CH Y AH
-2.2195845	<s> HH AH
-1.5539569	T HH AH
-1.2967235	AH HH AH
-2.6017895	D HH AH
-1.5431755	Z HH AH
-1.2944111	UW HH AH
-0.64812243	N HH AH
-1.5589488	ER HH AH
-1.3858858	IY HH AH
-2.2321758	DH HH AH
-1.0180305	S HH AH
-2.0563004	AY HH AH
-2.0791109	L HH AH
-1.6410744	K HH AH
-1.7663128	M HH AH
-1.7581089	F HH AH
-1.3384706	R HH AH
-0.9457872	V HH AH
-1.9832535	OW HH AH
-1.8526481	NG HH AH
-1.4887035	AA HH AH
-1.4757998	CH HH AH
-2.3236861	<s> SH AH
-1.7871442	T SH AH
-0.32570764	AH SH AH
-1.6590596	D SH AH
-0.015687646	EY SH AH
-0.8130696	IH SH AH
-1.805126	Z SH AH
-0.4922686	UW SH AH
-0.35030326	N SH AH
-0.5750338	ER SH AH
-0.5411736	EH SH AH
-1.2330196	IY SH AH
-0.019720545	P SH AH
-0.3007561	AE SH AH
-1.2432626	AY SH AH
-0.2132338	K SH AH
-1.2230698	M SH AH
-0.8649123	R SH AH
-0.3973965	OW SH AH
-1.2853411	AA SH AH
-1.3067565	UH SH AH
-1.8767912	B OY AH
-1.0803759	L OY AH
-1.0473002	R OY AH
-1.3411541	V OY AH
-0.07621599	G OY AH
-1.2292763	AH CH AH
-1.5324997	EY CH AH
-0.70177203	IH CH AH
-1.089572	N CH AH
-1.0443931	ER CH AH
-0.7001122	EH CH AH
-0.61508256	IY CH AH
-0.87558764	AE CH AH
-0.12649313	S CH AH
-2.1239715	K CH AH
-0.33779514	R CH AH
-1.1094971	AA CH AH
-0.10611164	EY ZH AH
-0.008254421	IH ZH AH
-0.02812612	UW ZH AH
-0.018148953	ER ZH AH
-0.0429366	IY ZH AH
-0.09058868	OW ZH AH
-1.2693444	AH T D
-2.4327998	EY T D
-2.0627704	IH T D
-2.8954203	UW T D
-2.0569372	N T D
-2.5544112	ER T D
-2.1677098	EH T D
-2.5116844	IY T D
-2.2263422	AW T D
-2.4006286	P T D
-1.7299569	AE T D
-2.187543	S T D
-2.3887162	AY T D
-2.4317284	L T D
-2.8223174	K T D
-2.5435393	AO T D
-2.6236928	F T D
-2.6127791	R T D
-2.4726353	OW T D
-1.7072071	AA T D
-1.4796422	UH T D
-1.3044578	<s> AH D
-0.7839252	T AH D
-1.316266	D AH D
-1.7147794	EY AH D
-1.2804565	Z AH D
-2.7539244	JH AH D
-1.796805	UW AH D
-1.556091	N AH D
-1.2896693	B AH D
-1.8244816	ER AH D
-1.9628847	TH AH D
-2.9887774	W AH D
-1.730639	IY AH D
-0.90615577	AW AH D
-1.3706107	DH AH D
-1.8265879	P AH D
-1.5012476	S AH D
-1.495747	AY AH D
-1.3905352	L AH D
-1.8333957	K AH D
-1.8991101	M AH D
-1.265234	AO AH D
-2.2478528	F AH D
-0.93835694	R AH D
-1.5070065	V AH D
-2.0194044	G AH D
-2.0900037	NG AH D
-2.632754	HH AH D
-2.116477	AH D D
-2.6765723	EY D D
-2.3193572	IH D D
-2.751234	Z D D
-2.1153374	N D D
-2.8566856	ER D D
-2.1757982	EH D D
-1.9483584	AE D D
-2.3977838	AY D D
-2.147888	L D D
-2.379046	M D D
-1.8072433	R D D
-2.3961968	V D D
-2.3439097	AA D D
-1.6611676	UH D D
-1.371625	<s> EY D
-1.3768488	T EY D
-2.355743	D EY D
-1.0393189	N EY D
-2.0067368	B EY D
-2.5468476	W EY D
-1.2091055	DH EY D
-1.1513662	P EY D
-2.036836	S EY D
-1.4687922	L EY D
-2.1891997	K EY D
-0.4694057	M EY D
-0.78832483	R EY D
-0.78101003	V EY D
-1.4440842	HH EY D
-1.6382151	SH EY D
-2.0055172	<s> IH D
-0.651424	T IH D
-0.5104952	D IH D
-2.8560033	Z IH D
-2.1518917	UW IH D
-2.1687934	N IH D
-2.871476	B IH D
-3.114732	TH IH D
-2.9411404	W IH D
-2.9052095	IY IH D
-2.5166585	P IH D
-2.0371048	S IH D
-2.8950539	L IH D
-1.6395273	K IH D
-1.8786142	M IH D
-2.4880989	F IH D
-2.3345294	R IH D
-1.4655768	V IH D
-2.373706	Y IH D
-1.9850173	HH IH D
-2.0218773	AH Z D
-1.8925008	D Z D
-1.4696504	EY Z D
-1.6988276	IH Z D
-0.45721316	UW Z D
-1.4789014	N Z D
-1.4860845	ER Z D
-1.5311742	IY Z D
-1.8803111	DH Z D
-1.8279709	AE Z D
-0.7406951	AY Z D
-1.6601988	L Z D
-1.4706948	M Z D
-2.2649083	R Z D
-1.93333	V Z D
-2.0725577	G Z D
-1.013695	OW Z D
-1.8718675	NG Z D
-1.5232482	AA Z D
-1.6184244	AH JH D
-1.7039366	EY JH D
-2.1494	IH JH D
-1.0050093	N JH D
-1.2167156	ER JH D
-2.1809556	IY JH D
-1.7614067	R JH D
-1.1372077	T UW D
-2.6763763	D UW D
-0.8137007	JH UW D
-1.2583684	N UW D
-0.41374904	B UW D
-2.1056526	S UW D
-1.0875398	L UW D
-2.1266053	M UW D
-0.15188137	F UW D
-2.0261729	R UW D
-1.4886034	Y UW D
-1.0638456	HH UW D
-1.9560297	CH UW D
-0.6158618	AH N D
-1.2373971	EY N D
-1.2282625	IH N D
-1.9230089	UW N D
-0.69200444	ER N D
-0.77554923	EH N D
-1.7389746	IY N D
-0.39746007	AW N D
-0.77520156	AE N D
-0.773407	AY N D
-1.7607956	AO N D
-2.398168	R N D
-1.6222206	OW N D
-1.8012712	AA N D
-0.2772621	UH N D
-1.2243268	OY N D
-2.749709	AH B D
-2.8931675	UW B D
-1.6169791	EH B D
-1.2416469	AE B D
-2.7248101	AY B D
-2.4126918	AA B D
-0.7103066	<s> ER D
-0.9262361	T ER D
-0.95147324	D ER D
-1.7093642	Z ER D
-1.7675655	JH ER D
-2.0986097	N ER D
-1.0790251	B ER D
-0.22570238	TH ER D
-0.9111921	W ER D
-1.7363634	IY ER D
-1.4629067	AW ER D
-1.5059248	DH ER D
-1.8158494	P ER D
-1.176771	S ER D
-0.6278842	AY ER D
-2.3149347	L ER D
-1.1531996	K ER D
-1.0630997	M ER D
-1.6711004	F ER D
-1.4590056	V ER D
-1.9678434	G ER D
-0.81904596	OW ER D
-1.7390786	Y ER D
-1.1260417	HH ER D
-1.2200578	CH ER D
-0.92989326	ZH ER D
-2.4723082	AH TH D
-2.115868	IH TH D
-1.9659704	N TH D
-0.49797678	ER TH D
-2.4221027	IY TH D
-1.9183136	AW TH D
-1.1516386	F TH D
-1.7611834	OW TH D
-2.2045135	<s> EH D
-1.6523947	T EH D
-0.78741884	D EH D
-1.6236476	Z EH D
-1.8537555	JH EH D
-2.5469413	N EH D
-0.6468603	B EH D
-2.1129816	ER EH D
-2.2771962	W EH D
-2.0582616	IY EH D
-0.9105554	S EH D
-2.13393	L EH D
-1.736206	M EH D
-1.656117	F EH D
-0.5413179	R EH D
-1.8151042	NG EH D
-0.9502955	HH EH D
-1.3972987	SH EH D
-2.0712073	<s> IY D
-1.9813057	T IY D
-1.2990301	D IY D
-2.228272	Z IY D
-1.7800219	JH IY D
-0.86479115	N IY D
-1.5100223	B IY D
-0.62326974	ER IY D
-1.7073641	TH IY D
-1.258677	W IY D
-0.56138307	AW IY D
-2.0666928	P IY D
-1.3187013	S IY D
-1.6200652	L IY D
-2.0182426	K IY D
-1.5996569	M IY D
-1.2254174	F IY D
-1.1136757	R IY D
-1.908927	V IY D
-1.576946	HH IY D
-1.3681328	SH IY D
-1.9299995	CH IY D
-2.5413365	N AW D
-0.74388087	L AW D
-0.47393566	R AW D
-1.0569288	HH AW D
-2.050663	EY DH D
-2.0573654	IH DH D
-2.950907	AH P D
-2.4071407	IH P D
-2.3418798	IY P D
-2.765151	AA P D
-1.3154333	<s> AE D
-2.0701046	T AE D
-1.3571761	AH AE D
-0.8419253	D AE D
-1.7325088	Z AE D
-1.6013156	UW AE D
-2.2180657	N AE D
-1.0108198	B AE D
-1.4642636	ER AE D
-1.6912262	IY AE D
-1.9442823	P AE D
-1.8662392	S AE D
-1.6190832	AY AE D
-1.9275544	L AE D
-2.396797	K AE D
-1.2818736	M AE D
-1.8769281	R AE D
-1.8835953	V AE D
-1.3497481	OW AE D
-1.4154882	NG AE D
-1.0014163	HH AE D
-1.1750183	SH AE D
-1.9777007	CH AE D
-1.7812407	T S D
-2.350468	AH S D
-2.4472208	EY S D
-1.9315851	IH S D
-2.630453	N S D
-2.9155867	ER S D
-2.6869266	EH S D
-2.9696803	IY S D
-2.0837605	AW S D
-2.9822295	AE S D
-2.6460633	AY S D
-1.6635267	L S D
-2.0109997	K S D
-2.3249698	AO S D
-1.5825692	<s> AY D
-1.9443103	T AY D
-1.5257316	AH AY D
-0.5027199	D AY D
-1.5080467	EY AY D
-1.3594524	Z AY D
-1.5697594	JH AY D
-1.2447196	UW AY D
-1.8406878	N AY D
-2.1226678	B AY D
-2.0552897	ER AY D
-1.1453154	TH AY D
-0.803367	W AY D
-1.1275737	IY AY D
-1.17013	AW AY D
-1.5758951	P AY D
-0.26758033	S AY D
-0.9249724	AY AY D
-1.7908726	L AY D
-0.89323556	K AY D
-1.4046791	M AY D
-1.7063361	F AY D
-0.9405093	R AY D
-0.87626123	V AY D
-1.2338986	G AY D
-0.376933	OW AY D
-1.1780813	NG AY D
-0.40330088	HH AY D
-1.7848681	AH L D
-1.3764092	EY L D
-0.93321973	IH L D
-1.8781791	UW L D
-0.5579597	ER L D
-1.6575954	EH L D
-1.7382511	IY L D
-2.2107031	AE L D
-1.5173168	AY L D
-0.82289517	AO L D
-0.16650105	OW L D
-2.6239483	AA L D
-0.7878698	UH L D
-0.9023878	OY L D
-3.0812058	AH K D
-2.4778526	EY K D
-2.3193583	IH K D
-2.5063677	ER K D
-2.3345242	IY K D
-1.912223	AE K D
-2.9622078	S K D
-2.1861215	AY K D
-2.43164	R K D
-2.3106036	OW K D
-2.7684991	NG K D
-2.411249	AA K D
-2.0761967	UH K D
-2.155477	AH M D
-1.0606437	EY M D
-1.9185215	IH M D
-2.5638518	UW M D
-2.7094896	ER M D
-2.196016	EH M D
-1.5919651	IY M D
-1.9225729	AE M D
-1.4670166	AY M D
-2.543651	L M D
-1.8972472	R M D
-2.6468987	OW M D
-1.5336004	AA M D
-1.6893809	S AO D
-2.5400438	L AO D
-1.1381276	R AO D
-2.9416776	IH F D
-2.655265	AE F D
-2.2609062	AY F D
-2.372261	AO F D
-1.3819485	IH R D
-1.3772064	EH R D
-2.6988297	IY R D
-2.352286	AY R D
-1.2195774	AO R D
-1.2208788	AA R D
-2.2359662	UH R D
-1.8584282	AH V D
-1.5905099	EY V D
-1.104652	IH V D
-0.8897326	UW V D
-1.0583203	ER V D
-1.3675926	IY V D
-1.7812678	AE V D
-0.9954282	AY V D
-1.572677	L V D
-2.3463547	AH G D
-1.93585	EY G D
-1.6317903	IH G D
-2.1820996	EH G D
-1.387918	AE G D
-1.7336928	<s> OW D
-2.5387137	T OW D
-1.8766682	D OW D
-1.8917565	N OW D
-2.1043613	B OW D
-1.760306	IY OW D
-1.447717	S OW D
-1.0403786	L OW D
-2.3052635	K OW D
-2.3442929	M OW D
-1.4586666	R OW D
-2.7875688	G OW D
-0.75702626	SH OW D
-2.0353296	IH NG D
-2.2563782	AE NG D
-1.3443241	AO NG D
-3.6696498	T AA D
-0.8229106	AH AA D
-2.9852905	N AA D
-0.5696901	B AA D
-2.0169876	ER AA D
-3.2736394	W AA D
-2.3400605	IY AA D
-2.5147603	P AA D
-2.357734	S AA D
-2.108218	AY AA D
-2.1354702	L AA D
-2.666341	K AA D
-1.3618442	M AA D
-2.3542302	R AA D
-1.016587	V AA D
-0.55550367	G AA D
-2.0732594	NG AA D
-1.8230042	IH SH D
-2.1519902	AA SH D
-0.7425625	T UH D
-0.16923477	W UH D
-2.1127882	P UH D
-0.19262312	K UH D
-0.002132276	G UH D
-0.21760975	HH UH D
-0.26608804	SH UH D
-0.90247786	JH OY D
-0.26678714	ER OY D
-0.34815058	L OY D
-0.33025682	R OY D
-1.6903051	V OY D
-1.4499418	AH CH D
-1.4081062	EY CH D
-1.7808185	IH CH D
-2.0805516	N CH D
-2.4729774	IY CH D
-2.4122975	AA CH D
-1.7476157	<s> T EY
-1.6121103	T T EY
-1.4182426	AH T EY
-2.157245	D T EY
-2.3114269	EY T EY
-2.8205745	IH T EY
-1.6344072	Z T EY
-1.3312037	UW T EY
-2.2130196	N T EY
-1.7808251	ER T EY
-2.8401546	EH T EY
-1.8586681	IY T EY
-2.4822521	AW T EY
-2.4038146	P T EY
-2.2133572	AE T EY
-1.1987424	S T EY
-1.8201694	AY T EY
-1.3662485	L T EY
-2.1074572	K T EY
-1.7236253	M T EY
-2.4470787	AO T EY
-2.521294	F T EY
-2.4169223	R T EY
-1.8480341	V T EY
-2.1697814	OW T EY
-2.6779823	NG T EY
-2.5888028	AA T EY
-1.7720306	SH T EY
-0.9879775	OY T EY
-1.7529566	CH T EY
-2.4818788	DH AH EY
-2.1999521	<s> D EY
-1.1291711	T D EY
-0.8232008	AH D EY
-1.4477589	D D EY
-2.8828616	IH D EY
-1.2967007	Z D EY
-1.9172146	JH D EY
-1.4071203	UW D EY
-1.5742855	N D EY
-0.70319444	ER D EY
-0.09860331	TH D EY
-2.0857792	EH D EY
-0.91693187	IY D EY
-2.1201963	AW D EY
-0.96914566	P D EY
-0.9764761	S D EY
-2.254763	AY D EY
-1.535135	L D EY
-1.668988	K D EY
-1.8458952	M D EY
-1.6270208	AO D EY
-1.8611423	R D EY
-1.9027182	V D EY
-1.8753607	NG D EY
-2.4454684	AA D EY
-1.4397221	SH D EY
-1.4349415	CH D EY
-2.2066028	DH EY EY
-2.6436942	EY Z EY
-2.3747432	IH Z EY
-2.9069421	N Z EY
-2.8992672	ER Z EY
-2.594789	AE Z EY
-2.4927793	V Z EY
-2.5006528	G Z EY
-2.4928627	AA Z EY
-1.5662408	<s> JH EY
-1.8818699	T JH EY
-1.3059993	D JH EY
-1.8662074	EY JH EY
-1.4895825	Z JH EY
-1.6903331	UW JH EY
-1.6343179	N JH EY
-1.9326576	EH JH EY
-1.4920727	IY JH EY
-1.9497068	AY JH EY
-2.1596649	R JH EY
-1.5920844	V JH EY
-1.3721268	NG JH EY
-3.6379316	T UW EY
-1.6285115	JH UW EY
-3.4496536	Y UW EY
-2.1926544	HH UW EY
-0.492997	CH UW EY
-2.0789561	<s> N EY
-1.2080698	T N EY
-1.923697	AH N EY
-1.5972753	D N EY
-2.0150871	EY N EY
-2.414494	IH N EY
-0.83788985	Z N EY
-1.2319613	JH N EY
-1.8782247	UW N EY
-1.0292854	N N EY
-0.26832002	B N EY
-1.2843957	ER N EY
-0.723569	TH N EY
-3.0853465	EH N EY
-1.6327451	IY N EY
-0.76721716	P N EY
-2.2788208	AE N EY
-0.88268894	S N EY
-1.2220348	AY N EY
-0.8656701	L N EY
-1.0611098	K N EY
-1.8593256	M N EY
-2.2610438	AO N EY
-1.060929	R N EY
-1.8261878	V N EY
-1.4319233	G N EY
-2.0892878	OW N EY
-1.6369073	NG N EY
-2.9567292	AA N EY
-1.0924988	SH N EY
-1.0937932	CH N EY
-1.489763	<s> B EY
-2.0796905	T B EY
-1.4089702	AH B EY
-1.8902805	D B EY
-1.5144435	EY B EY
-2.1077409	Z B EY
-2.0082867	UW B EY
-1.9256312	N B EY
-1.4462926	ER B EY
-2.4924028	IY B EY
-2.3538399	S B EY
-1.7727925	AY B EY
-1.5428349	L B EY
-1.4869441	K B EY
-2.4254377	M B EY
-1.5047661	R B EY
-1.6280701	V B EY
-1.286189	OW B EY
-1.9249043	NG B EY
-2.130582	AA B EY
-2.8657844	T ER EY
-1.6907561	JH ER EY
-1.5351586	N ER EY
-3.0823576	W ER EY
-2.6709428	AW ER EY
-1.2135159	P ER EY
-2.5974839	L ER EY
-1.4489758	K ER EY
-2.8364756	V ER EY
-2.7749157	HH ER EY
-2.5844364	AH TH EY
-2.485249	UW TH EY
-2.3585062	ER TH EY
-2.027752	AW TH EY
-2.2039986	<s> W EY
-1.7347654	T W EY
-0.7595227	AH W EY
-1.8739723	D W EY
-1.7050912	EY W EY
-1.4616904	Z W EY
-1.3689246	UW W EY
-1.5864224	N W EY
-0.36292517	B W EY
-1.6301618	ER W EY
-1.7345165	IY W EY
-1.6870613	S W EY
-1.8563983	AY W EY
-0.3894874	L W EY
-1.940212	K W EY
-1.5896612	M W EY
-1.4163295	F W EY
-1.2820959	R W EY
-1.7438391	V W EY
-2.291736	G W EY
-2.085882	OW W EY
-2.0820565	NG W EY
-1.6448216	CH W EY
-1.9035424	T IY EY
-2.9002185	D IY EY
-1.8603493	JH IY EY
-1.7836847	B IY EY
-2.1991186	W IY EY
-2.4316087	P IY EY
-1.9753976	S IY EY
-2.3829412	L IY EY
-2.9149685	M IY EY
-2.267362	R IY EY
-2.1361601	V IY EY
-2.640002	HH IY EY
-2.4274807	SH IY EY
-2.755162	N AW EY
-0.8712567	<s> DH EY
-1.8546162	T DH EY
-2.4416595	AH DH EY
-1.5603616	D DH EY
-1.932955	EY DH EY
-2.1987815	IH DH EY
-2.0021389	Z DH EY
-1.1322663	JH DH EY
-1.4087785	UW DH EY
-1.8887173	N DH EY
-1.6971337	ER DH EY
-2.1406207	IY DH EY
-1.0905861	AW DH EY
-1.7911673	S DH EY
-1.7315494	AY DH EY
-2.1042933	L DH EY
-2.1673732	K DH EY
-2.2348099	M DH EY
-1.701769	F DH EY
-1.1066374	R DH EY
-2.2752895	V DH EY
-2.2225418	OW DH EY
-2.245426	NG DH EY
-2.2150838	AA DH EY
-1.3576907	<s> P EY
-1.241016	T P EY
-1.6694415	AH P EY
-1.4100726	D P EY
-2.0538425	EY P EY
-1.0591762	Z P EY
-1.3198268	UW P EY
-1.6286153	N P EY
-0.5547117	B P EY
-1.9415642	ER P EY
-0.840833	TH P EY
-1.7842933	IY P EY
-0.90462136	AW P EY
-1.2859799	S P EY
-1.5568094	AY P EY
-1.7730219	L P EY
-1.4947902	K P EY
-1.8122783	M P EY
-1.8877995	R P EY
-1.193783	V P EY
-1.4524512	NG P EY
-1.3415991	CH P EY
-1.5530654	<s> S EY
-2.0269308	T S EY
-1.525735	AH S EY
-1.800689	D S EY
-1.3846332	EY S EY
-1.8016016	Z S EY
-1.5428497	JH S EY
-1.1263232	UW S EY
-2.067924	N S EY
-1.9895829	ER S EY
-1.8593117	TH S EY
-2.3616312	EH S EY
-1.7235007	IY S EY
-2.0127382	P S EY
-2.0408194	S S EY
-1.8487258	AY S EY
-1.5714273	L S EY
-2.6566656	K S EY
-1.4324104	M S EY
-1.7698387	R S EY
-2.2091362	V S EY
-1.5924349	G S EY
-2.0641897	NG S EY
-2.1304927	<s> AY EY
-2.9755094	T AY EY
-1.7662275	EY AY EY
-2.849448	B AY EY
-1.2096659	IY AY EY
-3.026716	M AY EY
-2.5943062	CH AY EY
-1.1271077	<s> L EY
-1.4799216	T L EY
-1.6783208	AH L EY
-1.1365006	D L EY
-2.3509083	EY L EY
-2.3713667	IH L EY
-0.7235682	Z L EY
-1.9114393	UW L EY
-1.7501768	N L EY
-1.5905684	B L EY
-1.7606068	ER L EY
-1.3599591	IY L EY
-1.2523317	AW L EY
-0.51082253	DH L EY
-0.15742901	P L EY
-2.1785133	AE L EY
-1.1824198	S L EY
-2.1640708	AY L EY
-1.9870056	L L EY
-1.6351197	K L EY
-1.5601188	M L EY
-2.8721604	AO L EY
-2.239621	F L EY
-1.3358068	R L EY
-1.773925	V L EY
-2.1936877	OW L EY
-1.4957733	NG L EY
-2.4380298	AA L EY
-1.7465134	OY L EY
-1.6226224	<s> K EY
-1.2982988	T K EY
-1.476759	AH K EY
-1.8730137	D K EY
-1.9476612	EY K EY
-1.3276784	IH K EY
-1.7724254	Z K EY
-1.748124	UW K EY
-1.3180696	N K EY
-1.9471868	ER K EY
-1.5140525	TH K EY
-1.3068888	IY K EY
-1.2361958	P K EY
-1.515455	S K EY
-1.9056628	AY K EY
-1.6045663	L K EY
-1.4431902	K K EY
-1.026325	M K EY
-2.4697828	AO K EY
-1.2010913	F K EY
-1.8245329	R K EY
-1.1945626	V K EY
-1.1676881	G K EY
-0.7878995	OW K EY
-2.053503	NG K EY
-2.3567975	AA K EY
-0.7181343	OY K EY
-1.5388143	CH K EY
-1.4645851	<s> M EY
-1.2702249	T M EY
-2.0585387	AH M EY
-1.627069	D M EY
-1.6414928	EY M EY
-1.9166449	IH M EY
-1.0625006	Z M EY
-1.1283005	UW M EY
-1.3046392	N M EY
-0.94561166	ER M EY
-0.96270794	IY M EY
-2.4964724	AE M EY
-1.4911398	S M EY
-1.2043483	AY M EY
-1.3439875	L M EY
-1.8291537	K M EY
-0.6596106	M M EY
-1.4121532	F M EY
-1.4357109	R M EY
-1.8436271	V M EY
-1.0796666	G M EY
-1.6687748	OW M EY
-2.464265	AA M EY
-1.5250596	SH M EY
-0.55470574	OY M EY
-1.6597216	CH M EY
-1.6588731	<s> F EY
-1.5031738	T F EY
-1.8182924	AH F EY
-1.7289277	D F EY
-1.8373528	EY F EY
-1.2372128	Z F EY
-1.8817745	UW F EY
-1.2807299	N F EY
-1.594811	ER F EY
-1.4797289	TH F EY
-1.3510783	IY F EY
-1.7614614	S F EY
-1.1330384	AY F EY
-2.3402278	L F EY
-2.1119623	K F EY
-1.4083	M F EY
-0.73877025	R F EY
-1.6211449	V F EY
-1.6471963	OW F EY
-2.2610712	NG F EY
-1.2315464	<s> R EY
-0.77511984	T R EY
-0.8586005	AH R EY
-2.157195	D R EY
-1.2536514	EY R EY
-2.1270213	IH R EY
-1.4574306	Z R EY
-1.3621224	UW R EY
-1.5070437	N R EY
-1.1817824	B R EY
-1.9633188	ER R EY
-1.959922	IY R EY
-0.70103335	DH R EY
-1.4414092	P R EY
-1.3257583	S R EY
-2.1389322	AY R EY
-1.8070694	L R EY
-0.97334373	K R EY
-1.7660362	M R EY
-2.4575844	AO R EY
-1.4760137	F R EY
-1.8215358	R R EY
-2.042668	V R EY
-0.78493416	G R EY
-1.3648512	OW R EY
-1.4095366	NG R EY
-2.7696633	AA R EY
-1.7919164	T V EY
-1.9753447	AH V EY
-2.6911726	IH V EY
-1.0061797	N V EY
-1.2690424	ER V EY
-0.8547739	TH V EY
-2.0472507	L V EY
-0.57096756	G V EY
-1.9551963	<s> G EY
-1.0202073	T G EY
-1.3146197	AH G EY
-1.147114	D G EY
-0.9003253	EY G EY
-2.1898746	IH G EY
-1.3636348	Z G EY
-1.6925544	UW G EY
-1.291834	N G EY
-1.1685535	ER G EY
-1.1228155	TH G EY
-1.8828106	EH G EY
-0.85621476	IY G EY
-1.037547	S G EY
-1.0536618	AY G EY
-1.2229306	L G EY
-1.1305884	K G EY
-0.73191583	M G EY
-2.0039039	AO G EY
-2.044419	R G EY
-1.0632472	OW G EY
-2.5370047	NG G EY
-0.8492477	SH G EY
-1.1228155	CH G EY
-3.2345011	N OW EY
-2.4512107	S OW EY
-2.2748497	R OW EY
-1.4075445	CH OW EY
-3.5398288	IH NG EY
-2.1925213	AH Y EY
-2.3679347	<s> HH EY
-2.908368	T HH EY
-2.2053335	AH HH EY
-2.711615	D HH EY
-1.77612	EY HH EY
-1.2821805	IH HH EY
-1.4458534	JH HH EY
-2.7030077	UW HH EY
-2.364262	N HH EY
-2.2699747	ER HH EY
-2.4013705	IY HH EY
-2.3289547	S HH EY
-2.6335227	M HH EY
-2.1249313	V HH EY
-1.5570636	CH HH EY
-2.7352338	<s> SH EY
-1.6211154	T SH EY
-1.159682	AH SH EY
-1.782331	D SH EY
-1.2882285	Z SH EY
-1.8171749	N SH EY
-1.6428437	IY SH EY
-1.29281	AY SH EY
-1.5538	L SH EY
-1.8314134	K SH EY
-1.444399	M SH EY
-1.3690867	R SH EY
-1.8450174	OW SH EY
-1.5667264	JH OY EY
-0.75631756	<s> CH EY
-0.7669142	T CH EY
-1.9637522	AH CH EY
-1.3378075	D CH EY
-1.4157822	EY CH EY
-0.6920934	Z CH EY
-0.7584065	UW CH EY
-1.8412694	N CH EY
-1.6516002	ER CH EY
-0.6960731	TH CH EY
-1.2777145	IY CH EY
-1.6801965	S CH EY
-0.94943416	AY CH EY
-0.88009983	L CH EY
-0.38688913	M CH EY
-0.2631881	AO CH EY
-0.44319275	F CH EY
-1.5348878	R CH EY
-0.7174665	V CH EY
-1.2179391	OW CH EY
-1.3499869	NG CH EY
-3.0225308	<s> T IH
-2.7709599	T T IH
-1.10611	AH T IH
-2.8230157	D T IH
-0.73835814	EY T IH
-0.97856385	IH T IH
-2.7154295	Z T IH
-1.8348342	UW T IH
-1.0732919	N T IH
-1.3875922	ER T IH
-1.1512336	EH T IH
-1.0515382	IY T IH
-1.1977379	AW T IH
-1.0188272	P T IH
-1.2059581	AE T IH
-1.1570431	S T IH
-0.9799199	AY T IH
-1.2595084	L T IH
-1.3595917	K T IH
-2.725363	M T IH
-1.5792769	AO T IH
-1.5700648	F T IH
-0.80087036	R T IH
-1.2259295	G T IH
-1.5703901	OW T IH
-2.827937	NG T IH
-1.4070593	AA T IH
-1.3398644	SH T IH
-1.1056832	UH T IH
-0.98522884	OY T IH
-1.4849242	CH T IH
-2.116819	<s> AH IH
-3.0104916	T AH IH
-2.1832988	AH AH IH
-2.4493935	D AH IH
-2.7918005	JH AH IH
-2.3283439	UW AH IH
-1.672352	N AH IH
-2.0702443	ER AH IH
-3.003435	W AH IH
-1.3536801	IY AH IH
-1.7129196	DH AH IH
-2.9890518	S AH IH
-2.2522683	L AH IH
-2.3266098	K AH IH
-2.468759	M AH IH
-2.6626122	F AH IH
-2.4663875	R AH IH
-2.3863442	V AH IH
-2.037615	G AH IH
-1.7317866	Y AH IH
-1.7043307	SH AH IH
-1.4361423	OY AH IH
-1.5303179	ZH AH IH
-0.6133701	<s> D IH
-0.6215468	T D IH
-1.0837475	AH D IH
-0.84553504	D D IH
-1.0175341	EY D IH
-1.2614688	IH D IH
-0.8750366	Z D IH
-1.2673833	JH D IH
-0.9122064	UW D IH
-1.093544	N D IH
-0.7871597	B D IH
-1.1598278	ER D IH
-1.6041102	TH D IH
-1.1997036	EH D IH
-0.61812437	IY D IH
-0.6652562	AW D IH
-1.1413943	DH D IH
-0.94602805	P D IH
-1.3784579	AE D IH
-0.62614334	S D IH
-0.62816507	AY D IH
-0.9490918	L D IH
-0.6591067	K D IH
-0.80690485	M D IH
-1.5749172	AO D IH
-0.7691946	F D IH
-0.7359525	R D IH
-0.6311457	V D IH
-0.97582227	G D IH
-0.5375594	OW D IH
-0.59245014	NG D IH
-1.3482397	AA D IH
-0.24910857	SH D IH
-1.4503076	UH D IH
-1.0852474	OY D IH
-0.54983526	CH D IH
-1.5128978	T EY IH
-1.1623893	D EY IH
-1.58249	JH EY IH
-2.0327768	B EY IH
-1.6237115	W EY IH
-1.8784361	DH EY IH
-1.6234287	P EY IH
-0.96806526	S EY IH
-1.8612386	AY EY IH
-1.0048139	L EY IH
-1.9374422	K EY IH
-2.0882864	R EY IH
-2.5073318	G EY IH
-0.5724424	<s> Z IH
-0.82814544	T Z IH
-0.9311264	AH Z IH
-1.1692326	D Z IH
-1.6162988	EY Z IH
-1.2698762	IH Z IH
-0.45547673	Z Z IH
-0.6650976	UW Z IH
-1.2116852	N Z IH
-1.2484047	ER Z IH
-1.0722393	EH Z IH
-1.2391884	IY Z IH
-2.4589896	AW Z IH
-1.3486093	DH Z IH
-1.4847889	AE Z IH
-1.3021691	AY Z IH
-1.1697409	L Z IH
-1.4289659	M Z IH
-1.1111726	AO Z IH
-1.1420214	R Z IH
-0.4459929	V Z IH
-0.9995445	G Z IH
-1.1670889	OW Z IH
-1.3047035	NG Z IH
-1.1251439	AA Z IH
-1.2769332	OY Z IH
-1.3547858	<s> JH IH
-1.6241035	T JH IH
-0.94944805	AH JH IH
-1.7162107	D JH IH
-1.0886378	EY JH IH
-0.92906654	IH JH IH
-1.4419619	Z JH IH
-1.8106273	UW JH IH
-1.485631	N JH IH
-0.9203034	B JH IH
-0.7342224	ER JH IH
-2.0424774	EH JH IH
-1.9189868	IY JH IH
-0.38753352	AE JH IH
-1.4750366	S JH IH
-1.8265536	AY JH IH
-0.35192814	L JH IH
-1.7898804	M JH IH
-1.5664217	R JH IH
-1.0587927	OW JH IH
-1.2579857	NG JH IH
-0.6968347	AA JH IH
-1.7470242	T UW IH
-0.9400438	D UW IH
-1.0268183	Z UW IH
-1.1380694	JH UW IH
-1.8965144	N UW IH
-1.1564761	ER UW IH
-2.0619798	P UW IH
-2.1920342	S UW IH
-1.701996	L UW IH
-2.2754526	K UW IH
-2.0301323	F UW IH
-1.832194	R UW IH
-1.2946724	G UW IH
-1.8188118	Y UW IH
-0.89601356	HH UW IH
-1.3800461	SH UW IH
-1.6238786	CH UW IH
-1.946085	<s> N IH
-1.6608958	T N IH
-1.2694547	AH N IH
-1.9823993	D N IH
-1.0782421	EY N IH
-1.2601551	IH N IH
-1.4023826	Z N IH
-0.7068212	JH N IH
-1.484973	UW N IH
-1.5881231	N N IH
-0.79756093	ER N IH
-1.7999374	EH N IH
-1.1815588	IY N IH
-1.8077025	AW N IH
-1.136334	P N IH
-1.1139916	AE N IH
-2.0290873	S N IH
-1.589559	AY N IH
-1.640905	L N IH
-1.2379966	K N IH
-1.7231394	M N IH
-0.38068122	R N IH
-0.6642639	V N IH
-1.7497377	G N IH
-1.4129019	OW N IH
-1.3653619	NG N IH
-1.638744	AA N IH
-1.1932652	OY N IH
-0.70105207	<s> B IH
-0.86650777	T B IH
-0.947551	AH B IH
-0.7982789	D B IH
-1.2485284	EY B IH
-0.6570873	Z B IH
-0.58398396	JH B IH
-0.9420865	UW B IH
-0.9762916	N B IH
-0.83679676	ER B IH
-0.5241673	TH B IH
-1.1684607	EH B IH
-0.79172313	IY B IH
-0.4143149	AW B IH
-1.1131545	DH B IH
-0.501687	P B IH
-1.790102	AE B IH
-0.74354506	S B IH
-0.96873665	AY B IH
-0.8206209	L B IH
-0.7615988	K B IH
-1.0584713	M B IH
-0.58863914	F B IH
-0.8269794	R B IH
-0.71194506	V B IH
-0.61421114	G B IH
-1.3346038	OW B IH
-0.8033079	NG B IH
-1.1035368	AA B IH
-0.75208133	SH B IH
-0.6866637	OY B IH
-0.8940615	CH B IH
-1.2694672	T ER IH
-1.767447	AH ER IH
-1.7817969	D ER IH
-1.4615377	EY ER IH
-1.3328534	Z ER IH
-1.9829702	JH ER IH
-1.633682	N ER IH
-1.4941697	B ER IH
-1.1506318	ER ER IH
-2.331627	TH ER IH
-1.577039	W ER IH
-1.7108146	IY ER IH
-1.2247163	AW ER IH
-0.98620147	DH ER IH
-1.3342234	P ER IH
-1.3476679	S ER IH
-1.5451639	AY ER IH
-1.3065174	L ER IH
-1.4032161	K ER IH
-1.3259076	M ER IH
-2.55328	F ER IH
-0.7611825	R ER IH
-0.9438387	V ER IH
-1.3313301	G ER IH
-1.5900106	NG ER IH
-1.8927834	Y ER IH
-1.7679949	HH ER IH
-1.6493545	SH ER IH
-1.3222955	CH ER IH
-0.85514045	<s> TH IH
-0.83583707	T TH IH
-0.2634019	AH TH IH
-1.0594765	D TH IH
-0.7767251	EY TH IH
-1.7360325	IH TH IH
-0.6174082	Z TH IH
-0.4250855	JH TH IH
-0.5664521	UW TH IH
-1.2040949	N TH IH
-0.91555625	ER TH IH
-0.9583308	EH TH IH
-0.13785028	IY TH IH
-1.1935463	AW TH IH
-0.77730036	S TH IH
-0.1350989	AY TH IH
-0.4387269	L TH IH
-1.2766746	K TH IH
-0.061727706	M TH IH
-1.130746	AO TH IH
-0.98982114	F TH IH
-1.1027772	R TH IH
-0.9299425	V TH IH
-1.2042309	OW TH IH
-0.67548394	NG TH IH
-0.46826455	AA TH IH
-0.82921565	CH TH IH
-1.268844	<s> W IH
-0.83138835	T W IH
-1.0036978	AH W IH
-0.4949207	D W IH
-0.5913738	EY W IH
-0.78928894	Z W IH
-0.76000065	JH W IH
-0.8162033	UW W IH
-0.73019445	N W IH
-0.9011915	B W IH
-0.88016564	ER W IH
-1.3529125	TH W IH
-0.95961744	IY W IH
-0.9619783	AW W IH
-1.3430952	DH W IH
-0.49442402	P W IH
-0.42961407	S W IH
-0.9791455	AY W IH
-0.9337836	L W IH
-0.69936377	K W IH
-0.7443858	M W IH
-0.52014697	F W IH
-0.9949245	R W IH
-0.37692234	V W IH
-1.6962779	G W IH
-1.0930243	OW W IH
-0.25400212	NG W IH
-1.5033678	AA W IH
-0.8227426	SH W IH
-0.6513635	CH W IH
-2.891843	Y EH IH
-1.2092779	T IY IH
-0.91648865	D IY IH
-1.9006957	Z IY IH
-1.2969105	JH IY IH
-1.5111111	N IY IH
-0.94392914	B IY IH
-1.2612151	ER IY IH
-1.8396059	TH IY IH
-2.0287783	W IY IH
-2.173421	P IY IH
-1.3318764	S IY IH
-1.3624785	L IY IH
-1.2059941	K IY IH
-1.4824948	M IY IH
-1.5034319	F IY IH
-1.2622843	R IY IH
-1.2931479	V IY IH
-0.9887739	HH IY IH
-0.9206774	SH IY IH
-1.755486	CH IY IH
-2.1336281	D AW IH
-1.5028996	N AW IH
-2.800569	B AW IH
-2.276435	L AW IH
-2.058978	K AW IH
-1.527846	HH AW IH
-0.66159755	<s> DH IH
-0.8469107	T DH IH
-2.3989036	AH DH IH
-1.0081292	D DH IH
-1.1395333	EY DH IH
-1.4112862	IH DH IH
-0.8529713	Z DH IH
-1.0939062	JH DH IH
-0.9831245	UW DH IH
-0.98164576	N DH IH
-0.7123034	B DH IH
-1.35439	ER DH IH
-1.1147867	TH DH IH
-0.95210683	IY DH IH
-1.2200674	DH DH IH
-1.3085587	P DH IH
-0.91039354	S DH IH
-0.91655976	AY DH IH
-1.0310843	L DH IH
-0.64941823	K DH IH
-1.1230253	M DH IH
-1.4094713	F DH IH
-1.2634757	R DH IH
-0.94095904	V DH IH
-0.7714614	G DH IH
-1.0340443	OW DH IH
-0.87471265	NG DH IH
-0.49203828	SH DH IH
-0.6252958	OY DH IH
-1.1091479	CH DH IH
-1.4277275	<s> P IH
-1.6308181	T P IH
-1.1971651	AH P IH
-1.2180357	D P IH
-1.4375453	IH P IH
-1.3674942	Z P IH
-1.3464676	UW P IH
-2.2137575	N P IH
-1.8431214	ER P IH
-2.1131191	EH P IH
-1.1429727	IY P IH
-1.8448055	AE P IH
-1.1948156	S P IH
-1.3932201	AY P IH
-1.2740042	L P IH
-1.2141961	K P IH
-1.5458024	M P IH
-1.6327231	R P IH
-1.3855797	V P IH
-1.7018723	OW P IH
-1.4510155	NG P IH
-1.1231823	AA P IH
-1.5101812	Y AE IH
-1.2947478	<s> S IH
-1.1704297	T S IH
-1.1092892	AH S IH
-0.81139576	D S IH
-1.243089	EY S IH
-0.83165705	IH S IH
-0.9749407	Z S IH
-0.6637702	JH S IH
-1.2675718	UW S IH
-0.89225364	N S IH
-1.2257291	ER S IH
-1.2645764	TH S IH
-1.5663625	EH S IH
-1.1148062	IY S IH
-0.86423993	AW S IH
-1.2525856	DH S IH
-1.2736547	P S IH
-1.5364292	AE S IH
-0.8823777	S S IH
-0.82687145	AY S IH
-0.7748567	L S IH
-1.2043592	K S IH
-1.44328	M S IH
-1.5739985	AO S IH
-0.7148934	R S IH
-1.3969855	V S IH
-0.2635266	G S IH
-1.522497	OW S IH
-1.1475071	NG S IH
-2.12925	AA S IH
-1.0148733	SH S IH
-0.98042184	UH S IH
-1.5580132	OY S IH
-0.8677995	CH S IH
-2.5270863	<s> AY IH
-2.3025692	T AY IH
-1.4130459	D AY IH
-1.6351137	EY AY IH
-1.7370806	UW AY IH
-2.3857007	N AY IH
-1.4111252	B AY IH
-1.3266824	W AY IH
-1.9412928	P AY IH
-1.6425359	L AY IH
-1.9762055	K AY IH
-2.3492134	M AY IH
-2.712297	F AY IH
-0.9557904	R AY IH
-1.5058424	G AY IH
-1.6202515	HH AY IH
-1.1518406	<s> L IH
-1.4551494	T L IH
-1.0905168	AH L IH
-1.2448748	D L IH
-1.4541372	EY L IH
-1.2081895	IH L IH
-1.0498128	Z L IH
-1.2113433	UW L IH
-1.390557	N L IH
-0.96219283	B L IH
-1.1283505	ER L IH
-0.39090973	TH L IH
-1.2205176	EH L IH
-0.84030366	IY L IH
-0.9377689	AW L IH
-1.1799816	DH L IH
-2.0555658	P L IH
-1.4501307	AE L IH
-1.3874913	S L IH
-1.2765512	AY L IH
-1.1331407	L L IH
-1.173135	K L IH
-0.914025	M L IH
-1.3975661	AO L IH
-1.7682512	F L IH
-0.8533152	R L IH
-0.99670875	V L IH
-0.1225142	G L IH
-1.5365837	OW L IH
-1.8818637	NG L IH
-0.7864062	AA L IH
-0.53725374	SH L IH
-1.1551727	UH L IH
-0.7062064	OY L IH
-1.1321927	CH L IH
-1.528461	<s> K IH
-1.5314436	T K IH
-1.104288	AH K IH
-1.0742531	D K IH
-0.9181323	EY K IH
-1.6143136	IH K IH
-1.6025488	Z K IH
-1.2342969	UW K IH
-1.4881053	N K IH
-0.6462926	ER K IH
-2.278318	EH K IH
-0.96507454	IY K IH
-1.4160072	P K IH
-1.1342838	AE K IH
-1.4486334	S K IH
-1.5098039	AY K IH
-1.1315476	L K IH
-2.139813	K K IH
-1.3576177	M K IH
-0.6071295	AO K IH
-1.2002705	F K IH
-1.0732831	R K IH
-1.7683117	V K IH
-1.219616	OW K IH
-0.96362686	NG K IH
-1.5429884	AA K IH
-1.4673632	SH K IH
-0.8423959	UH K IH
-1.5016425	<s> M IH
-1.6649635	T M IH
-1.1296508	AH M IH
-1.4522614	D M IH
-0.9341822	EY M IH
-1.3182191	IH M IH
-1.5382457	Z M IH
-1.323141	JH M IH
-1.3207804	UW M IH
-1.0496129	N M IH
-0.7093532	B M IH
-1.579811	ER M IH
-1.1946919	EH M IH
-1.0364125	IY M IH
-1.362802	AE M IH
-1.3162084	S M IH
-1.0825262	AY M IH
-1.518864	L M IH
-1.1091281	K M IH
-0.74465847	M M IH
-1.4301597	AO M IH
-1.1936747	F M IH
-1.4564117	R M IH
-1.337568	V M IH
-0.4812919	G M IH
-1.3844312	OW M IH
-1.5870663	NG M IH
-0.8705137	AA M IH
-1.3300074	SH M IH
-2.1086228	S AO IH
-2.5780518	L AO IH
-1.0696857	<s> F IH
-1.0203481	T F IH
-1.2322094	AH F IH
-1.0639417	D F IH
-1.4995642	EY F IH
-1.2865536	IH F IH
-1.3703212	Z F IH
-1.4454162	JH F IH
-0.9554487	UW F IH
-1.1543322	N F IH
-1.425652	ER F IH
-1.3953809	TH F IH
-1.0982056	IY F IH
-1.0734758	AW F IH
-0.9843275	DH F IH
-1.2654903	P F IH
-0.99445385	AE F IH
-1.109963	S F IH
-1.0277786	AY F IH
-1.3020558	L F IH
-1.1987652	K F IH
-0.99780375	M F IH
-0.6153288	AO F IH
-1.2074983	F F IH
-1.1164967	R F IH
-0.7793696	V F IH
-0.63814265	G F IH
-1.5461189	OW F IH
-1.5620744	NG F IH
-1.5102724	AA F IH
-1.373338	SH F IH
-0.97969043	CH F IH
-0.7857813	<s> R IH
-1.2122586	T R IH
-0.7118951	AH R IH
-0.79574054	D R IH
-0.94741416	EY R IH
-1.4958601	IH R IH
-0.60806584	Z R IH
-0.72642124	UW R IH
-0.9068021	N R IH
-0.6389695	B R IH
-0.8472019	ER R IH
-2.7140388	TH R IH
-0.89917606	EH R IH
-0.93696624	IY R IH
-0.35626993	AW R IH
-0.85510427	P R IH
-0.8097258	S R IH
-0.55747336	AY R IH
-1.0017802	L R IH
-0.8526068	K R IH
-0.5828596	M R IH
-1.5034251	AO R IH
-1.9589779	F R IH
-0.84369534	R R IH
-1.8013463	V R IH
-2.170908	G R IH
-0.6454575	OW R IH
-1.1130512	NG R IH
-1.4839985	AA R IH
-0.84780854	UH R IH
-0.79079676	OY R IH
-1.2304033	CH R IH
-0.7570529	<s> V IH
-0.7929338	T V IH
-1.0835361	AH V IH
-1.1581609	D V IH
-1.2465571	EY V IH
-0.96811074	IH V IH
-2.0246775	Z V IH
-1.0335292	UW V IH
-0.91238457	N V IH
-0.7884783	B V IH
-0.9670659	ER V IH
-0.7884783	TH V IH
-2.6282158	EH V IH
-0.44037175	IY V IH
-1.3528084	AE V IH
-0.4821713	S V IH
-0.49756765	AY V IH
-0.6243273	L V IH
-1.2617384	K V IH
-1.101238	M V IH
-1.3997607	R V IH
-0.9614126	V V IH
-2.105986	OW V IH
-0.9546201	NG V IH
-1.1909606	AA V IH
-0.40994912	<s> G IH
-1.3064336	T G IH
-1.2813383	AH G IH
-1.2257289	D G IH
-0.9611555	EY G IH
-0.85802615	IH G IH
-0.97895026	Z G IH
-1.1553153	UW G IH
-1.4138198	N G IH
-1.0017886	ER G IH
-1.108299	TH G IH
-1.7371379	EH G IH
-1.5183357	IY G IH
-1.1601813	AE G IH
-1.0059652	S G IH
-1.527897	AY G IH
-0.9089246	L G IH
-0.9201203	K G IH
-1.5446709	M G IH
-0.73134106	AO G IH
-1.2798141	F G IH
-1.277095	R G IH
-1.3343296	V G IH
-2.754505	NG G IH
-1.7285346	AA G IH
-0.9169044	CH G IH
-1.8764734	<s> OW IH
-1.4962566	T OW IH
-1.2581173	D OW IH
-1.4867487	N OW IH
-1.2730726	IY OW IH
-1.9231617	DH OW IH
-1.4430135	S OW IH
-1.4331932	L OW IH
-1.283578	K OW IH
-2.4886835	F OW IH
-1.1822585	R OW IH
-1.6216091	V OW IH
-0.44879174	G OW IH
-2.7404366	HH OW IH
-1.138481	SH OW IH
-1.7793661	AH NG IH
-1.197824	IH NG IH
-2.358536	AE NG IH
-1.5056384	AO NG IH
-2.693848	D AA IH
-3.5765991	W AA IH
-2.525737	S AA IH
-2.0516942	L AA IH
-2.2306252	K AA IH
-2.816167	M AA IH
-2.744558	R AA IH
-2.2108176	SH AA IH
-2.518162	<s> Y IH
-0.800655	T Y IH
-0.6269207	AH Y IH
-1.532914	D Y IH
-2.4227061	Z Y IH
-1.3672286	UW Y IH
-1.0009332	N Y IH
-0.251716	EH Y IH
-0.5360232	IY Y IH
-2.3407304	P Y IH
-1.0118481	S Y IH
-2.0805368	AY Y IH
-1.8015466	L Y IH
-2.2962065	M Y IH
-1.5433992	R Y IH
-1.0232393	V Y IH
-1.6022031	NG Y IH
-1.3832556	<s> HH IH
-0.5620735	T HH IH
-1.0065548	AH HH IH
-0.4188509	D HH IH
-1.6376116	EY HH IH
-0.83874416	Z HH IH
-0.8696844	JH HH IH
-0.83420587	UW HH IH
-0.7075646	N HH IH
-0.67862946	B HH IH
-1.0567597	ER HH IH
-1.29575	TH HH IH
-1.1693037	IY HH IH
-0.21624424	DH HH IH
-0.3582572	P HH IH
-0.9144132	S HH IH
-1.3534935	AY HH IH
-0.58420694	L HH IH
-0.4397117	K HH IH
-1.2184497	M HH IH
-0.33061084	AO HH IH
-0.51156443	F HH IH
-0.84118307	R HH IH
-0.3414516	V HH IH
-0.81595546	OW HH IH
-0.5483554	NG HH IH
-1.4094875	AA HH IH
-0.37681282	SH HH IH
-0.86909336	OY HH IH
-0.53970814	CH HH IH
-2.8790655	<s> SH IH
-1.468305	T SH IH
-1.47364	AH SH IH
-1.0888515	D SH IH
-0.9710106	IH SH IH
-1.7373744	Z SH IH
-1.9814988	UW SH IH
-1.8319848	N SH IH
-1.1538222	ER SH IH
-1.1755778	EH SH IH
-1.5784621	IY SH IH
-1.3516679	AE SH IH
-0.6149119	S SH IH
-1.4802716	L SH IH
-1.6022046	M SH IH
-0.27793592	AO SH IH
-1.5671458	R SH IH
-0.49024248	AA SH IH
-0.6017079	UH SH IH
-1.3989719	T OY IH
-1.5505544	N OY IH
-1.2491742	B OY IH
-0.6325904	<s> CH IH
-0.8853406	T CH IH
